{"learner":{"attributes":{"best_iteration":"509","best_score":"0.9998808513066438","scikit_learn":"{\"_estimator_type\": \"classifier\"}"},"feature_names":["Mass","Radius","log10_Lambda"],"feature_types":["float","float","float"],"gradient_booster":{"model":{"cats":{"enc":[],"feature_segments":[],"sorted_idx":[]},"gbtree_model_param":{"num_parallel_tree":"1","num_trees":"560"},"iteration_indptr":[0,1,2,3,4,5,6,7,8,9,10,11,12,13,14,15,16,17,18,19,20,21,22,23,24,25,26,27,28,29,30,31,32,33,34,35,36,37,38,39,40,41,42,43,44,45,46,47,48,49,50,51,52,53,54,55,56,57,58,59,60,61,62,63,64,65,66,67,68,69,70,71,72,73,74,75,76,77,78,79,80,81,82,83,84,85,86,87,88,89,90,91,92,93,94,95,96,97,98,99,100,101,102,103,104,105,106,107,108,109,110,111,112,113,114,115,116,117,118,119,120,121,122,123,124,125,126,127,128,129,130,131,132,133,134,135,136,137,138,139,140,141,142,143,144,145,146,147,148,149,150,151,152,153,154,155,156,157,158,159,160,161,162,163,164,165,166,167,168,169,170,171,172,173,174,175,176,177,178,179,180,181,182,183,184,185,186,187,188,189,190,191,192,193,194,195,196,197,198,199,200,201,202,203,204,205,206,207,208,209,210,211,212,213,214,215,216,217,218,219,220,221,222,223,224,225,226,227,228,229,230,231,232,233,234,235,236,237,238,239,240,241,242,243,244,245,246,247,248,249,250,251,252,253,254,255,256,257,258,259,260,261,262,263,264,265,266,267,268,269,270,271,272,273,274,275,276,277,278,279,280,281,282,283,284,285,286,287,288,289,290,291,292,293,294,295,296,297,298,299,300,301,302,303,304,305,306,307,308,309,310,311,312,313,314,315,316,317,318,319,320,321,322,323,324,325,326,327,328,329,330,331,332,333,334,335,336,337,338,339,340,341,342,343,344,345,346,347,348,349,350,351,352,353,354,355,356,357,358,359,360,361,362,363,364,365,366,367,368,369,370,371,372,373,374,375,376,377,378,379,380,381,382,383,384,385,386,387,388,389,390,391,392,393,394,395,396,397,398,399,400,401,402,403,404,405,406,407,408,409,410,411,412,413,414,415,416,417,418,419,420,421,422,423,424,425,426,427,428,429,430,431,432,433,434,435,436,437,438,439,440,441,442,443,444,445,446,447,448,449,450,451,452,453,454,455,456,457,458,459,460,461,462,463,464,465,466,467,468,469,470,471,472,473,474,475,476,477,478,479,480,481,482,483,484,485,486,487,488,489,490,491,492,493,494,495,496,497,498,499,500,501,502,503,504,505,506,507,508,509,510,511,512,513,514,515,516,517,518,519,520,521,522,523,524,525,526,527,528,529,530,531,532,533,534,535,536,537,538,539,540,541,542,543,544,545,546,547,548,549,550,551,552,553,554,555,556,557,558,559,560],"tree_info":[0,0,0,0,0,0,0,0,0,0,0,0,0,0,0,0,0,0,0,0,0,0,0,0,0,0,0,0,0,0,0,0,0,0,0,0,0,0,0,0,0,0,0,0,0,0,0,0,0,0,0,0,0,0,0,0,0,0,0,0,0,0,0,0,0,0,0,0,0,0,0,0,0,0,0,0,0,0,0,0,0,0,0,0,0,0,0,0,0,0,0,0,0,0,0,0,0,0,0,0,0,0,0,0,0,0,0,0,0,0,0,0,0,0,0,0,0,0,0,0,0,0,0,0,0,0,0,0,0,0,0,0,0,0,0,0,0,0,0,0,0,0,0,0,0,0,0,0,0,0,0,0,0,0,0,0,0,0,0,0,0,0,0,0,0,0,0,0,0,0,0,0,0,0,0,0,0,0,0,0,0,0,0,0,0,0,0,0,0,0,0,0,0,0,0,0,0,0,0,0,0,0,0,0,0,0,0,0,0,0,0,0,0,0,0,0,0,0,0,0,0,0,0,0,0,0,0,0,0,0,0,0,0,0,0,0,0,0,0,0,0,0,0,0,0,0,0,0,0,0,0,0,0,0,0,0,0,0,0,0,0,0,0,0,0,0,0,0,0,0,0,0,0,0,0,0,0,0,0,0,0,0,0,0,0,0,0,0,0,0,0,0,0,0,0,0,0,0,0,0,0,0,0,0,0,0,0,0,0,0,0,0,0,0,0,0,0,0,0,0,0,0,0,0,0,0,0,0,0,0,0,0,0,0,0,0,0,0,0,0,0,0,0,0,0,0,0,0,0,0,0,0,0,0,0,0,0,0,0,0,0,0,0,0,0,0,0,0,0,0,0,0,0,0,0,0,0,0,0,0,0,0,0,0,0,0,0,0,0,0,0,0,0,0,0,0,0,0,0,0,0,0,0,0,0,0,0,0,0,0,0,0,0,0,0,0,0,0,0,0,0,0,0,0,0,0,0,0,0,0,0,0,0,0,0,0,0,0,0,0,0,0,0,0,0,0,0,0,0,0,0,0,0,0,0,0,0,0,0,0,0,0,0,0,0,0,0,0,0,0,0,0,0,0,0,0,0,0,0,0,0,0,0,0,0,0,0,0,0,0,0,0,0,0,0,0,0,0,0,0,0,0,0,0,0,0,0,0,0,0,0,0,0,0,0,0,0,0,0,0,0,0,0,0,0,0,0,0,0,0,0,0,0,0,0,0,0,0,0,0,0,0,0,0,0,0,0,0,0,0,0,0,0,0,0,0,0,0,0,0],"trees":[{"base_weights":[-8.526826E-3,9.4186085E-1,-8.423553E-1,1.9130054E0,3.9024955E-1,1.1608373E0,-1.8276029E0,4.2544913E-1,-4.5737725E-1,6.913478E-1,-1.9198273E0,1.436417E0,-1.285111E-1,-8.669229E-1,-1.9638261E0,-2.1261731E-1,9.522744E-2,7.2539824E-1,-2.7777526E-1,-2.3364334E-1,-4.19E-1,1.5803217E0,1.077009E0,-8.495375E-1,4.3900406E-1,8.2881755E-1,-1.2431461E0,-1.517038E0,-4.2435485E-1,2.709569E-1,1.3305171E-1,2.3585552E-1,3.6790812E-1,2.6603255E-1,-8.600913E-2,-8.008379E-2,-3.7538776E-1,2.3020114E-1,-2.9618093E-1,-7.266055E-2,3.514441E-1,-1.3260266E-1,-3.432932E-1,1.4908344E-1,-4.0131995E-1],"categories":[],"categories_nodes":[],"categories_segments":[],"categories_sizes":[],"default_left":[0,0,0,0,0,0,0,0,0,0,0,0,0,0,0,0,0,0,0,0,0,0,0,0,0,0,0,0,0,0,0,0,0,0,0,0,0,0,0,0,0,0,0,0,0],"id":0,"left_children":[1,3,5,7,9,11,13,-1,15,17,19,21,23,25,27,-1,-1,29,-1,-1,-1,31,33,35,37,39,41,43,-1,-1,-1,-1,-1,-1,-1,-1,-1,-1,-1,-1,-1,-1,-1,-1,-1],"loss_changes":[2.2611592E3,7.135874E2,3.0017915E3,9.5564575E1,5.937253E2,1.784444E2,1.3167383E2,0E0,8.789175E0,5.2162506E1,1.5481262E0,1.9680603E1,3.6899303E1,8.292146E1,7.6411133E0,0E0,0E0,4.0217926E1,0E0,0E0,0E0,1.8298767E1,3.1206406E1,1.646442E1,6.0796566E1,2.3485022E1,2.3049118E1,4.5538803E1,0E0,0E0,0E0,0E0,0E0,0E0,0E0,0E0,0E0,0E0,0E0,0E0,0E0,0E0,0E0,0E0,0E0],"parents":[2147483647,0,0,1,1,2,2,3,3,4,4,5,5,6,6,8,8,9,9,10,10,11,11,12,12,13,13,14,14,17,17,21,21,22,22,23,23,24,24,25,25,26,26,27,27],"right_children":[2,4,6,8,10,12,14,-1,16,18,20,22,24,26,28,-1,-1,30,-1,-1,-1,32,34,36,38,40,42,44,-1,-1,-1,-1,-1,-1,-1,-1,-1,-1,-1,-1,-1,-1,-1,-1,-1],"split_conditions":[1.0770867E-1,-3.239224E-1,-5.109131E-1,6.5091103E-1,2.0718735E-1,-6.6751546E-1,-2.4400438E-1,4.2544913E-1,-3.670681E-1,1.1935686E0,2.905561E-1,1.3520736E0,1.9454241E-1,3.217011E-1,-1.1274508E-1,-2.1261731E-1,9.522744E-2,9.1373734E-2,-2.7777526E-1,-2.3364334E-1,-4.19E-1,1.7514347E-1,-8.4325784E-1,6.700414E-1,9.7606045E-1,1.6006008E-1,-4.362946E-1,4.757194E-2,-4.2435485E-1,2.709569E-1,1.3305171E-1,2.3585552E-1,3.6790812E-1,2.6603255E-1,-8.600913E-2,-8.008379E-2,-3.7538776E-1,2.3020114E-1,-2.9618093E-1,-7.266055E-2,3.514441E-1,-1.3260266E-1,-3.432932E-1,1.4908344E-1,-4.0131995E-1],"split_indices":[1,1,2,0,2,2,2,0,1,0,2,0,1,0,2,0,0,0,0,0,0,1,2,0,0,1,2,0,0,0,0,0,0,0,0,0,0,0,0,0,0,0,0,0,0],"split_type":[0,0,0,0,0,0,0,0,0,0,0,0,0,0,0,0,0,0,0,0,0,0,0,0,0,0,0,0,0,0,0,0,0,0,0,0,0,0,0,0,0,0,0,0,0],"sum_hessian":[2.8513394E3,1.332473E3,1.5188663E3,4.817882E2,8.506848E2,5.0069055E2,1.0181757E3,4.656968E2,1.6091393E1,7.5321106E2,9.7473724E1,4.1242627E2,8.8264275E1,1.2736062E2,8.908151E2,1.000971E1,6.0816827E0,7.411926E2,1.2018469E1,6.4289794E0,9.104475E1,2.9208163E2,1.2034462E2,3.865556E1,4.9608715E1,2.2907461E1,1.04453156E2,5.3591393E1,8.372237E2,1.1422885E2,6.2696375E2,7.061728E1,2.2146437E2,1.0803046E2,1.2314165E1,2.6360813E1,1.22947445E1,3.7036743E1,1.2571972E1,9.679931E0,1.32275305E1,3.980826E1,6.46449E1,7.4571586E0,4.6134235E1],"tree_param":{"num_deleted":"0","num_feature":"3","num_nodes":"45","size_leaf_vector":"1"}},{"base_weights":[-1.197954E-2,7.105126E-1,-7.4620146E-1,1.5520184E0,2.7956602E-1,1.0961194E0,-1.4741608E0,3.5249835E-1,-3.8553822E-1,5.392143E-1,-1.5547777E0,1.1992382E0,4.8398176E-1,-5.7086223E-1,-1.6214074E0,-2.681957E-1,3.4429187E-1,1.4994711E0,4.8981997E-1,-1.8907072E-1,-3.4732756E-1,1.4265333E0,8.4190834E-1,8.9849544E-1,-2.990615E-1,9.623185E-1,-7.890249E-1,-1.2296034E0,-3.5165748E-1,3.6726102E-1,1.03218906E-1,1.1866126E-1,-3.1373632E-1,1.1393681E-1,3.286778E-1,2.2021657E-1,-4.4324387E-2,7.0480276E-3,3.1670174E-1,-2.983352E-2,3.3158648E-1,-2.4207431E-1,-1.297765E-2,3.370531E-1,-3.349525E-1],"categories":[],"categories_nodes":[],"categories_segments":[],"categories_sizes":[],"default_left":[0,0,0,0,0,0,0,0,0,0,0,0,0,0,0,0,0,0,0,0,0,0,0,0,0,0,0,0,0,0,0,0,0,0,0,0,0,0,0,0,0,0,0,0,0],"id":1,"left_children":[1,3,5,7,9,11,13,-1,15,17,19,21,23,25,27,-1,-1,29,31,-1,-1,33,35,37,-1,39,41,43,-1,-1,-1,-1,-1,-1,-1,-1,-1,-1,-1,-1,-1,-1,-1,-1,-1],"loss_changes":[1.4622596E3,5.0341492E2,1.8351658E3,9.312866E1,4.3904358E2,2.3897614E1,1.2947241E2,0E0,4.431179E1,3.7528717E1,4.2427673E0,2.5698853E1,4.6297585E1,4.7237476E1,7.2668457E0,0E0,0E0,8.003029E0,1.0154645E2,0E0,0E0,1.983902E1,2.6536728E1,2.4248817E1,0E0,1.182835E1,3.0761833E1,6.0495132E1,0E0,0E0,0E0,0E0,0E0,0E0,0E0,0E0,0E0,0E0,0E0,0E0,0E0,0E0,0E0,0E0,0E0],"parents":[2147483647,0,0,1,1,2,2,3,3,4,4,5,5,6,6,8,8,9,9,10,10,11,11,12,12,13,13,14,14,17,17,18,18,21,21,22,22,23,23,25,25,26,26,27,27],"right_children":[2,4,6,8,10,12,14,-1,16,18,20,22,24,26,28,-1,-1,30,32,-1,-1,34,36,38,-1,40,42,44,-1,-1,-1,-1,-1,-1,-1,-1,-1,-1,-1,-1,-1,-1,-1,-1,-1],"split_conditions":[1.5112294E-1,-2.9913092E-1,-5.810402E-1,6.6351825E-1,1.0060584E-1,-7.119095E-1,-2.7296177E-1,3.5249835E-1,7.7796715E-1,-2.0396309E-1,2.2108752E-1,1.3162748E0,1.0874273E0,3.402129E-1,-9.5678E-2,-2.681957E-1,3.4429187E-1,2.8474579E-2,-1.5668182E-1,-1.8907072E-1,-3.4732756E-1,1.7514347E-1,-8.5365087E-1,2.5348994E-1,-2.990615E-1,1.7825405E-1,3.4319362E-1,9.1373734E-2,-3.5165748E-1,3.6726102E-1,1.03218906E-1,1.1866126E-1,-3.1373632E-1,1.1393681E-1,3.286778E-1,2.2021657E-1,-4.4324387E-2,7.0480276E-3,3.1670174E-1,-2.983352E-2,3.3158648E-1,-2.4207431E-1,-1.297765E-2,3.370531E-1,-3.349525E-1],"split_indices":[1,1,2,0,2,2,2,0,0,0,2,0,0,0,2,0,0,2,2,0,0,1,2,1,0,1,1,0,0,0,0,0,0,0,0,0,0,0,0,0,0,0,0,0,0],"split_type":[0,0,0,0,0,0,0,0,0,0,0,0,0,0,0,0,0,0,0,0,0,0,0,0,0,0,0,0,0,0,0,0,0,0,0,0,0,0,0,0,0,0,0,0,0],"sum_hessian":[2.7545386E3,1.3883756E3,1.366163E3,4.6932574E2,9.190499E2,3.8678387E2,9.793791E2,4.4610397E2,2.3221779E1,8.0570917E2,1.1334073E2,3.302003E2,5.658357E1,1.3795538E2,8.4142377E2,1.6427996E1,6.793782E0,3.798081E1,7.677284E2,1.266652E1,1.0067421E2,1.999935E2,1.302068E2,4.6821312E1,9.762258E0,1.6760025E1,1.2119535E2,5.941928E1,7.8200446E2,3.0562399E1,7.4184113E0,7.431363E2,2.459206E1,2.3525272E1,1.7646823E2,1.1016945E2,2.0037348E1,1.9351706E1,2.7469604E1,6.1305704E0,1.0629456E1,8.173859E1,3.945677E1,6.04596E0,5.337332E1],"tree_param":{"num_deleted":"0","num_feature":"3","num_nodes":"45","size_leaf_vector":"1"}},{"base_weights":[-1.1508968E-2,5.843373E-1,-6.476188E-1,1.3782734E0,2.2524072E-1,9.14229E-1,-1.295884E0,3.1033695E-1,-9.6427284E-2,4.1860566E-1,-1.3839259E0,1.0426629E0,2.7907157E-1,-3.6678633E-1,-1.4126636E0,4.6230146E-1,-2.9440865E-1,-1.8387413E-1,-3.0678815E-1,1.2402768E0,6.8740046E-1,5.788011E-1,-2.966786E-1,3.362168E-1,-6.3711315E-1,-9.626099E-1,-3.088098E-1,1.2766269E-1,3.8526304E-2,-1.551035E-1,8.2269445E-2,1.138816E-1,2.8184637E-1,1.7683491E-1,-1.2486361E-1,-9.990548E-3,2.589659E-1,-2.245896E-1,2.1871142E-2,2.4625011E-1,-3.0494732E-1],"categories":[],"categories_nodes":[],"categories_segments":[],"categories_sizes":[],"default_left":[0,0,0,0,0,0,0,0,0,0,0,0,0,0,0,0,0,0,0,0,0,0,0,0,0,0,0,0,0,0,0,0,0,0,0,0,0,0,0,0,0],"id":2,"left_children":[1,3,5,7,9,11,13,-1,-1,15,17,19,21,23,25,27,29,-1,-1,31,33,35,-1,-1,37,39,-1,-1,-1,-1,-1,-1,-1,-1,-1,-1,-1,-1,-1,-1,-1],"loss_changes":[9.825457E2,3.8130273E2,1.2706296E3,5.974774E1,2.8773154E2,2.9756897E1,9.566028E1,0E0,0E0,2.5827896E1,1.6131134E0,2.0631744E1,3.2514214E1,5.3726765E1,1.1327881E1,2.9781189E1,1.4493036E1,0E0,0E0,1.0582123E1,2.0680477E1,2.1700602E1,0E0,0E0,2.7457275E1,6.223877E1,0E0,0E0,0E0,0E0,0E0,0E0,0E0,0E0,0E0,0E0,0E0,0E0,0E0,0E0,0E0],"parents":[2147483647,0,0,1,1,2,2,3,3,4,4,5,5,6,6,9,9,10,10,11,11,12,12,13,13,14,14,15,15,16,16,19,19,20,20,21,21,24,24,25,25],"right_children":[2,4,6,8,10,12,14,-1,-1,16,18,20,22,24,26,28,30,-1,-1,32,34,36,-1,-1,38,40,-1,-1,-1,-1,-1,-1,-1,-1,-1,-1,-1,-1,-1,-1,-1],"split_conditions":[1.5112294E-1,-3.239224E-1,-5.810402E-1,6.5682024E-1,1.6674954E-1,-7.1952343E-1,-3.5611984E-1,3.1033695E-1,-9.6427284E-2,1.0675254E0,2.905561E-1,1.3520736E0,1.1316644E0,4.1091368E-1,-1.7299217E-1,-6.1787814E-1,5.986343E-2,-1.8387413E-1,-3.0678815E-1,1.7514347E-1,-8.3772564E-1,2.8633302E-1,-2.966786E-1,3.362168E-1,3.196052E-1,2.2670607E-1,-3.088098E-1,1.2766269E-1,3.8526304E-2,-1.551035E-1,8.2269445E-2,1.138816E-1,2.8184637E-1,1.7683491E-1,-1.2486361E-1,-9.990548E-3,2.589659E-1,-2.245896E-1,2.1871142E-2,2.4625011E-1,-3.0494732E-1],"split_indices":[1,1,2,0,2,2,2,0,0,0,2,0,0,0,2,2,1,0,0,1,2,1,0,0,1,0,0,0,0,0,0,0,0,0,0,0,0,0,0,0,0],"split_type":[0,0,0,0,0,0,0,0,0,0,0,0,0,0,0,0,0,0,0,0,0,0,0,0,0,0,0,0,0,0,0,0,0,0,0,0,0,0,0,0,0],"sum_hessian":[2.5903088E3,1.3375254E3,1.2527833E3,4.1567047E2,9.218549E2,3.6734317E2,8.854402E2,3.9899057E2,1.6679903E1,8.2362427E2,9.823065E1,3.050234E2,6.2319767E1,9.932807E1,7.861121E2,7.763959E2,4.7228436E1,1.0990751E1,8.72399E1,1.9439851E2,1.1062489E2,5.3394432E1,8.925332E0,1.1536276E1,8.7791794E1,6.0150257E1,7.2596185E2,5.2209503E2,2.5430086E2,2.8813547E1,1.8414888E1,2.0969378E1,1.7342914E2,9.983035E1,1.0794535E1,2.738215E1,2.6012283E1,5.589997E1,3.1891825E1,1.0618125E1,4.953213E1],"tree_param":{"num_deleted":"0","num_feature":"3","num_nodes":"41","size_leaf_vector":"1"}},{"base_weights":[3.6389106E-3,5.7100403E-1,-5.2822685E-1,1.2581044E0,2.484184E-1,6.2793475E-1,-1.243156E0,2.841937E-1,-5.7165276E-2,4.2154494E-1,-1.2793531E0,8.6564445E-1,-1.4738585E-1,-6.200967E-1,-1.3203858E0,4.6171167E-1,-8.4498036E-1,-1.7121357E-1,-2.7887034E-1,1.0447133E0,5.911364E-1,1.0496931E0,-4.192416E-1,2.4990687E-1,-9.262812E-1,-1.165305E0,-2.8495768E-1,1.9294707E-1,7.872438E-2,-2.9586786E-1,-8.461892E-2,1.4997487E-1,2.716085E-1,1.5800114E-1,-2.916473E-1,9.422448E-2,3.0740225E-1,-2.0065296E-1,5.033144E-2,-9.988266E-2,-2.7852786E-1,-3.560622E-1,-2.244946E-1],"categories":[],"categories_nodes":[],"categories_segments":[],"categories_sizes":[],"default_left":[0,0,0,0,0,0,0,0,0,0,0,0,0,0,0,0,0,0,0,0,0,0,0,0,0,0,0,0,0,0,0,0,0,0,0,0,0,0,0,0,0,0,0],"id":3,"left_children":[1,3,5,7,9,11,13,-1,-1,15,17,19,21,23,25,27,29,-1,-1,31,33,35,37,-1,39,41,-1,-1,-1,-1,-1,-1,-1,-1,-1,-1,-1,-1,-1,-1,-1,-1,-1],"loss_changes":[7.1715283E2,2.5456067E2,1.0147003E3,4.238507E1,2.0784247E2,8.663107E1,3.5669434E1,0E0,0E0,3.6241722E1,4.626465E-2,1.7047485E1,3.6560074E1,4.801466E1,1.459961E-1,2.7684753E1,4.8043823E0,0E0,0E0,1.6022324E1,4.3391735E1,4.3274803E0,3.140766E1,0E0,1.2197533E1,2.3159103E0,0E0,0E0,0E0,0E0,0E0,0E0,0E0,0E0,0E0,0E0,0E0,0E0,0E0,0E0,0E0,0E0,0E0],"parents":[2147483647,0,0,1,1,2,2,3,3,4,4,5,5,6,6,9,9,10,10,11,11,12,12,13,13,14,14,15,15,16,16,19,19,20,20,21,21,22,22,24,24,25,25],"right_children":[2,4,6,8,10,12,14,-1,-1,16,18,20,22,24,26,28,30,-1,-1,32,34,36,38,-1,40,42,-1,-1,-1,-1,-1,-1,-1,-1,-1,-1,-1,-1,-1,-1,-1,-1,-1],"split_conditions":[9.996419E-2,-3.239224E-1,-4.4946027E-1,6.6351825E-1,2.2108752E-1,-6.621547E-1,-2.4400438E-1,2.841937E-1,-5.7165276E-2,1.1417043E0,-2.692469E-1,1.2469361E0,5.4351944E-1,2.4626994E-1,-1.3539204E-2,1.4308532E-1,1.4580179E-2,-1.7121357E-1,-2.7887034E-1,1.914682E-1,-7.899518E-1,1.7514347E-1,2.8633302E-1,2.4990687E-1,-3.70259E-1,1.1502296E-1,-2.8495768E-1,1.9294707E-1,7.872438E-2,-2.9586786E-1,-8.461892E-2,1.4997487E-1,2.716085E-1,1.5800114E-1,-2.916473E-1,9.422448E-2,3.0740225E-1,-2.0065296E-1,5.033144E-2,-9.988266E-2,-2.7852786E-1,-3.560622E-1,-2.244946E-1],"split_indices":[1,1,2,0,2,2,2,0,0,0,1,0,0,0,2,0,1,0,0,1,2,1,1,0,2,1,0,0,0,0,0,0,0,0,0,0,0,0,0,0,0,0,0],"split_type":[0,0,0,0,0,0,0,0,0,0,0,0,0,0,0,0,0,0,0,0,0,0,0,0,0,0,0,0,0,0,0,0,0,0,0,0,0,0,0,0,0,0,0],"sum_hessian":[2.374551E3,1.1488972E3,1.2256538E3,3.6613577E2,7.827614E2,4.6835922E2,7.5729456E2,3.4910657E2,1.7029198E1,7.0373816E2,7.902328E1,3.5836856E2,1.0999065E2,8.451231E1,6.727823E2,6.827217E2,2.1016478E1,6.151444E0,7.287183E1,2.1518925E2,1.4317932E2,1.9826445E1,9.01642E1,1.1917854E1,7.259445E1,7.0902214E1,6.0188007E2,1.16255974E2,5.664657E2,8.554073E0,1.2462404E1,8.813822E1,1.2705103E2,1.3357297E2,9.606344E0,8.611981E0,1.1214464E1,4.9945442E1,4.0218758E1,3.3953293E1,3.8641155E1,1.0369731E1,6.0532486E1],"tree_param":{"num_deleted":"0","num_feature":"3","num_nodes":"43","size_leaf_vector":"1"}},{"base_weights":[7.2313915E-4,1.1367506E0,-1.9984323E-1,2.677898E-1,-2.9744285E-1,3.100023E-1,-1.1816218E0,-1.956198E-1,2.9498896E-1,5.145128E-1,-1.2299721E-1,7.836664E-2,-1.2485552E0,-2.5382757E-1,7.306555E-1,3.1900352E-1,-3.0798078E-1,3.016051E-1,-2.5486654E-1,-8.764429E-1,-2.686932E-1,3.2450667E-1,-8.7074585E-2,1.7903136E-1,9.764855E-2,-2.707402E-2,-2.703698E-1,-1.3939658E-1,-2.4021076E-1],"categories":[],"categories_nodes":[],"categories_segments":[],"categories_sizes":[],"default_left":[0,0,0,0,0,0,0,0,0,0,0,0,0,0,0,0,0,0,0,0,0,0,0,0,0,0,0,0,0],"id":4,"left_children":[1,3,5,-1,7,9,11,-1,-1,13,15,17,19,21,23,-1,25,-1,-1,27,-1,-1,-1,-1,-1,-1,-1,-1,-1],"loss_changes":[4.951763E2,5.622278E1,9.249691E2,0E0,2.8246563E1,1.0779486E2,5.3362E1,0E0,0E0,1.3744298E2,1.1761322E2,5.7531082E1,1.538269E0,5.0657444E1,1.8816254E1,0E0,6.0981937E1,0E0,0E0,4.7677803E-1,0E0,0E0,0E0,0E0,0E0,0E0,0E0,0E0,0E0],"parents":[2147483647,0,0,1,1,2,2,4,4,5,5,6,6,9,9,10,10,11,11,12,12,13,13,14,14,16,16,19,19],"right_children":[2,4,6,-1,8,10,12,-1,-1,14,16,18,20,22,24,-1,26,-1,-1,28,-1,-1,-1,-1,-1,-1,-1,-1,-1],"split_conditions":[-2.9913092E-1,6.4240897E-1,-8.04921E-2,2.677898E-1,7.8248096E-1,-6.3123924E-1,-1.1302353E-1,-1.956198E-1,2.9498896E-1,-9.0520285E-2,-4.244451E-2,3.4446388E-1,-1.3539204E-2,5.202564E-1,-7.5835186E-1,3.1900352E-1,-2.4400438E-1,3.016051E-1,-2.5486654E-1,2.7768168E-1,-2.686932E-1,3.2450667E-1,-8.7074585E-2,1.7903136E-1,9.764855E-2,-2.707402E-2,-2.703698E-1,-1.3939658E-1,-2.4021076E-1],"split_indices":[1,0,2,0,0,2,1,0,0,1,0,2,2,0,2,0,2,0,0,1,0,0,0,0,0,0,0,0,0],"split_type":[0,0,0,0,0,0,0,0,0,0,0,0,0,0,0,0,0,0,0,0,0,0,0,0,0,0,0,0,0],"sum_hessian":[2.1712693E3,3.2511554E2,1.8461537E3,3.002419E2,2.4873613E1,1.2155784E3,6.305754E2,1.8502396E1,6.3712177E0,8.2549817E2,3.900802E2,3.1799273E1,5.987761E2,1.8119939E2,6.4429877E2,3.9264004E1,3.508162E2,1.5464916E1,1.6334356E1,2.0781265E1,5.779949E2,1.380379E1,1.673956E2,4.5859305E2,1.8570572E2,2.9613663E2,5.467958E1,1.2913373E1,7.8678913E0],"tree_param":{"num_deleted":"0","num_feature":"3","num_nodes":"29","size_leaf_vector":"1"}},{"base_weights":[-4.720382E-3,1.1143056E0,-1.7493516E-1,2.5350854E-1,-1.215189E-1,2.2558728E-1,-1.1291414E0,-1.7943855E-1,1.8424088E-1,4.469216E-1,-7.300512E-2,7.0386957E-3,-2.536403E-1,-2.7534515E-1,5.8788586E-1,8.078771E-1,-2.545309E-1,2.9301858E-1,-2.404408E-1,2.812905E-1,-9.079131E-2,1.8373781E-1,9.709901E-2,2.9708117E-1,3.5578694E-2,-8.074839E-4,-2.481771E-1],"categories":[],"categories_nodes":[],"categories_segments":[],"categories_sizes":[],"default_left":[0,0,0,0,0,0,0,0,0,0,0,0,0,0,0,0,0,0,0,0,0,0,0,0,0,0,0],"id":5,"left_children":[1,3,5,-1,7,9,11,-1,-1,13,15,17,-1,19,21,23,25,-1,-1,-1,-1,-1,-1,-1,-1,-1,-1],"loss_changes":[3.8107605E2,2.4582275E1,6.6391125E2,0E0,1.2082596E1,8.092129E1,3.539441E1,0E0,0E0,7.174159E1,8.365802E1,4.347909E1,0E0,2.828933E1,2.0960419E1,3.3333797E1,9.886563E1,0E0,0E0,0E0,0E0,0E0,0E0,0E0,0E0,0E0,0E0],"parents":[2147483647,0,0,1,1,2,2,4,4,5,5,6,6,9,9,10,10,11,11,13,13,14,14,15,15,16,16],"right_children":[2,4,6,-1,8,10,12,-1,-1,14,16,18,-1,20,22,24,26,-1,-1,-1,-1,-1,-1,-1,-1,-1,-1],"split_conditions":[-3.239224E-1,6.5091103E-1,-1.3539204E-2,2.5350854E-1,7.543605E-1,-6.967081E-1,-1.0740538E-1,-1.7943855E-1,1.8424088E-1,-1.4176765E-1,9.1373734E-2,3.4446388E-1,-2.536403E-1,5.933706E-1,8.340012E-1,-1.7299217E-1,-3.5611984E-1,2.9301858E-1,-2.404408E-1,2.812905E-1,-9.079131E-2,1.8373781E-1,9.709901E-2,2.9708117E-1,3.5578694E-2,-8.074839E-4,-2.481771E-1],"split_indices":[1,0,2,0,0,2,1,0,0,1,0,2,0,0,0,2,2,0,0,0,0,0,0,0,0,0,0],"split_type":[0,0,0,0,0,0,0,0,0,0,0,0,0,0,0,0,0,0,0,0,0,0,0,0,0,0,0],"sum_hessian":[1.9986406E3,2.6314252E2,1.735498E3,2.4814815E2,1.4994382E1,1.2229398E3,5.125582E2,8.748705E0,6.245677E0,7.0204553E2,5.2089435E2,2.6016912E1,4.865413E2,1.1448725E2,5.875583E2,8.841179E1,4.3248254E2,1.1703775E1,1.4313137E1,9.205031E0,1.0528222E2,1.8963414E2,3.9792413E2,4.558523E1,4.282656E1,3.3981516E2,9.266739E1],"tree_param":{"num_deleted":"0","num_feature":"3","num_nodes":"27","size_leaf_vector":"1"}},{"base_weights":[-1.5130983E-2,1.0482516E0,-1.6253218E-1,2.4415782E-1,-5.3782694E-2,1.7866236E-1,-1.0897088E0,3.3052525E-1,-1.364771E-1,-9.131995E-2,-2.4421456E-1,-7.80282E-2,5.3346974E-1,7.310071E-1,-3.3683848E-1,-2.3068102E-1,2.644731E-1,2.8376323E-1,-3.6125924E-2,1.3587473E-1,4.8267394E-2,2.7515602E-1,4.716388E-2,-1.8481817E-2,-2.1144594E-1],"categories":[],"categories_nodes":[],"categories_segments":[],"categories_sizes":[],"default_left":[0,0,0,0,0,0,0,0,0,0,0,0,0,0,0,0,0,0,0,0,0,0,0,0,0],"id":6,"left_children":[1,3,5,-1,-1,7,9,11,13,15,-1,17,19,21,23,-1,-1,-1,-1,-1,-1,-1,-1,-1,-1],"loss_changes":[2.9011313E2,2.8730362E1,5.144047E2,0E0,0E0,5.6951416E1,2.42901E1,6.659561E1,6.757619E1,3.336094E1,0E0,3.4660473E1,1.6968628E1,2.0542671E1,5.1588184E1,0E0,0E0,0E0,0E0,0E0,0E0,0E0,0E0,0E0,0E0],"parents":[2147483647,0,0,1,1,2,2,5,5,6,6,7,7,8,8,9,9,11,11,12,12,13,13,14,14],"right_children":[2,4,6,-1,-1,8,10,12,14,16,-1,18,20,22,24,-1,-1,-1,-1,-1,-1,-1,-1,-1,-1],"split_conditions":[-3.239224E-1,6.6351825E-1,-1.3539204E-2,2.4415782E-1,-5.3782694E-2,-6.1787814E-1,-1.0740538E-1,-2.8671918E-2,4.757194E-2,-7.990081E-1,-2.4421456E-1,5.0778186E-1,-7.283305E-1,-1.7299217E-1,-3.4215072E-1,-2.3068102E-1,2.644731E-1,2.8376323E-1,-3.6125924E-2,1.3587473E-1,4.8267394E-2,2.7515602E-1,4.716388E-2,-1.8481817E-2,-2.1144594E-1],"split_indices":[1,0,2,0,0,2,1,1,0,0,0,0,2,2,2,0,0,0,0,0,0,0,0,0,0],"split_type":[0,0,0,0,0,0,0,0,0,0,0,0,0,0,0,0,0,0,0,0,0,0,0,0,0],"sum_hessian":[1.8487866E3,2.2432784E2,1.6244589E3,2.0886073E2,1.5467093E1,1.188066E3,4.3639273E2,8.0169E2,3.8637607E2,2.3263327E1,4.131294E2,2.662699E2,5.354201E2,7.199936E1,3.143767E2,1.3447667E1,9.8156595E0,1.5398458E1,2.5087144E2,3.992512E2,1.3616893E2,3.358852E1,3.841084E1,2.2831775E2,8.6058945E1],"tree_param":{"num_deleted":"0","num_feature":"3","num_nodes":"25","size_leaf_vector":"1"}},{"base_weights":[-4.781281E-3,1.018567E0,-1.3376765E-1,2.3697081E-1,-1.5875174E-2,1.4849573E-1,-1.0352386E0,-1.0583629E-1,1.4747795E-1,2.5553718E-1,1.1543618E-1,-1.7275782E-2,-1.0938112E0,1.8305604E-1,-1.0085946E0,-2.1984059E-1,2.4616732E-1,-6.491102E-1,-2.3720339E-1,2.5520805E-1,2.6986914E-2,-1.4447124E-1,-2.6471546E-1,-5.485962E-2,-2.0987119E-1],"categories":[],"categories_nodes":[],"categories_segments":[],"categories_sizes":[],"default_left":[0,0,0,0,0,0,0,0,0,0,0,0,0,0,0,0,0,0,0,0,0,0,0,0,0],"id":7,"left_children":[1,3,5,-1,7,9,11,-1,-1,-1,13,15,17,19,21,-1,-1,23,-1,-1,-1,-1,-1,-1,-1],"loss_changes":[2.2319305E2,1.8230942E1,3.8223447E2,0E0,5.989812E0,3.959385E1,2.1337463E1,0E0,0E0,0E0,8.4596436E1,2.555722E1,2.1201172E0,5.9880302E1,4.032173E0,0E0,0E0,1.873517E0,0E0,0E0,0E0,0E0,0E0,0E0,0E0],"parents":[2147483647,0,0,1,1,2,2,4,4,5,5,6,6,10,10,11,11,12,12,13,13,14,14,17,17],"right_children":[2,4,6,-1,8,10,12,-1,-1,-1,14,16,18,20,22,-1,-1,24,-1,-1,-1,-1,-1,-1,-1],"split_conditions":[-3.239224E-1,6.5682024E-1,-1.3539204E-2,2.3697081E-1,-3.670681E-1,-8.6693935E-2,-1.0740538E-1,-1.0583629E-1,1.4747795E-1,2.5553718E-1,-2.5893688E-1,-8.185394E-1,4.6288826E-2,2.4626994E-1,-1.887949E-1,-2.1984059E-1,2.4616732E-1,3.4319362E-1,-2.3720339E-1,2.5520805E-1,2.6986914E-2,-1.4447124E-1,-2.6471546E-1,-5.485962E-2,-2.0987119E-1],"split_indices":[1,0,2,0,1,0,1,0,0,0,2,0,2,0,2,0,0,1,0,0,0,0,0,0,0],"split_type":[0,0,0,0,0,0,0,0,0,0,0,0,0,0,0,0,0,0,0,0,0,0,0,0,0],"sum_hessian":[1.6888505E3,1.882692E2,1.5005812E3,1.7266696E2,1.5602223E1,1.1434012E3,3.5717993E2,9.46971E0,6.1325135E0,3.381932E1,1.1095819E3,1.9504051E1,3.376759E2,1.0474087E3,6.2173264E1,1.0521496E1,8.982554E0,1.5187906E1,3.2248798E2,5.4178688E1,9.9323E2,2.731359E1,3.4859676E1,7.8199425E0,7.367964E0],"tree_param":{"num_deleted":"0","num_feature":"3","num_nodes":"25","size_leaf_vector":"1"}},{"base_weights":[5.060944E-3,9.9747825E-1,-1.0634453E-1,9.801446E-3,2.320174E-1,1.3751367E-1,-1.0101113E0,2.5955313E-1,-1.5015745E-1,-9.284821E-3,-1.0670927E0,1.1671803E0,1.9255215E-1,4.2017043E-1,-4.8554957E-1,2.458273E-1,-2.1286961E-1,-7.232736E-1,-2.3206513E-1,1.4530203E-1,2.9074088E-1,-4.7658417E-2,8.1386246E-2,2.4482518E-1,5.0788918E-3,-3.4492467E-2,-2.0887534E-1,-7.894469E-2,-2.1187612E-1],"categories":[],"categories_nodes":[],"categories_segments":[],"categories_sizes":[],"default_left":[0,0,0,0,0,0,0,0,0,0,0,0,0,0,0,0,0,0,0,0,0,0,0,0,0,0,0,0,0],"id":8,"left_children":[1,3,5,-1,-1,7,9,11,13,15,17,19,21,23,25,-1,-1,27,-1,-1,-1,-1,-1,-1,-1,-1,-1,-1,-1],"loss_changes":[1.7376044E2,1.3665939E1,3.1156238E2,0E0,0E0,3.9136925E1,1.7120178E1,4.734915E1,6.3779045E1,2.0917994E1,1.3122559E0,4.186844E0,5.7540924E1,3.5652256E1,3.3404438E1,0E0,0E0,1.5131855E0,0E0,0E0,0E0,0E0,0E0,0E0,0E0,0E0,0E0,0E0,0E0],"parents":[2147483647,0,0,1,1,2,2,5,5,6,6,7,7,8,8,9,9,10,10,11,11,12,12,13,13,14,14,17,17],"right_children":[2,4,6,-1,-1,8,10,12,14,16,18,20,22,24,26,-1,-1,28,-1,-1,-1,-1,-1,-1,-1,-1,-1,-1,-1],"split_conditions":[-3.239224E-1,-9.4311434E-1,-1.3539204E-2,9.801446E-3,2.320174E-1,-6.017682E-1,-1.0740538E-1,5.857311E-1,2.4626994E-1,3.4446388E-1,8.4884316E-2,-1.5934984E-1,-3.2574516E-2,-2.9190373E-1,-4.4946027E-1,2.458273E-1,-2.1286961E-1,1.7825405E-1,-2.3206513E-1,1.4530203E-1,2.9074088E-1,-4.7658417E-2,8.1386246E-2,2.4482518E-1,5.0788918E-3,-3.4492467E-2,-2.0887534E-1,-7.894469E-2,-2.1187612E-1],"split_indices":[1,2,2,0,0,2,1,0,0,2,2,1,1,2,2,0,0,1,0,0,0,0,0,0,0,0,0,0,0],"split_type":[0,0,0,0,0,0,0,0,0,0,0,0,0,0,0,0,0,0,0,0,0,0,0,0,0,0,0,0,0],"sum_hessian":[1.5696696E3,1.5761923E2,1.4120503E3,1.3873132E1,1.4374611E2,1.1126722E3,2.993781E2,7.8131195E2,3.313603E2,1.618936E1,2.8318875E2,5.2582615E1,7.287293E2,1.2261058E2,2.0874971E2,7.3670454E0,8.822313E0,1.8696451E1,2.644923E2,1.6443153E1,3.6139458E1,2.2773476E2,5.0099457E2,4.25428E1,8.006778E1,1.2693229E2,8.181742E1,9.141459E0,9.554992E0],"tree_param":{"num_deleted":"0","num_feature":"3","num_nodes":"29","size_leaf_vector":"1"}},{"base_weights":[3.2271321E-3,2.2672345E-1,-7.823531E-2,1.1147108E-1,-9.958623E-1,3.302102E-1,-8.471981E-2,-1.7860686E-2,-2.2616418E-1,-5.002031E-1,4.3427506E-1,2.4601382E-1,-1.5396577E-1,1.8497479E-1,-2.0257212E-1,1.4756684E-1,-1.547581E-1,1.8641888E-1,5.1787917E-2,-1.6608058E-2,-2.2028872E-1],"categories":[],"categories_nodes":[],"categories_segments":[],"categories_sizes":[],"default_left":[0,0,0,0,0,0,0,0,0,0,0,0,0,0,0,0,0,0,0,0,0],"id":9,"left_children":[1,-1,3,5,7,9,11,13,-1,15,17,-1,19,-1,-1,-1,-1,-1,-1,-1,-1],"loss_changes":[1.2697583E2,0E0,2.3776715E2,4.8617092E1,1.4864319E1,4.6498123E1,5.1444424E1,1.3710771E1,0E0,1.6681461E1,3.9917915E1,0E0,3.7837654E1,0E0,0E0,0E0,0E0,0E0,0E0,0E0,0E0],"parents":[2147483647,0,0,2,2,3,3,4,4,5,5,6,6,7,7,9,9,10,10,12,12],"right_children":[2,-1,4,6,8,10,12,14,-1,16,18,-1,20,-1,-1,-1,-1,-1,-1,-1,-1],"split_conditions":[-4.684741E-1,2.2672345E-1,8.4884316E-2,-7.623288E-1,-1.0740538E-1,7.233871E-1,-2.0396309E-1,4.5782328E-1,-2.2616418E-1,6.4240897E-1,8.5106766E-1,2.4601382E-1,-1.5668182E-1,1.8497479E-1,-2.0257212E-1,1.4756684E-1,-1.547581E-1,1.8641888E-1,5.1787917E-2,-1.6608058E-2,-2.2028872E-1],"split_indices":[1,0,2,2,1,0,0,2,0,0,0,0,2,0,0,0,0,0,0,0,0],"split_type":[0,0,0,0,0,0,0,0,0,0,0,0,0,0,0,0,0,0,0,0,0],"sum_hessian":[1.4681006E3,1.03886185E2,1.3642144E3,1.1312277E3,2.3298677E2,5.345541E2,5.966736E2,1.4607206E1,2.1837956E2,5.910481E1,4.7544925E2,3.0759296E1,5.6591425E2,7.5273075E0,7.079899E0,9.079382E0,5.0025425E1,1.4297327E2,3.3247598E2,5.21865E2,4.4049274E1],"tree_param":{"num_deleted":"0","num_feature":"3","num_nodes":"21","size_leaf_vector":"1"}},{"base_weights":[-2.7489394E-2,2.2188888E-1,-9.8280765E-2,5.9736963E-2,-9.7761494E-1,2.5698668E-1,3.8032304E-2,9.185827E-3,-2.2304691E-1,6.8416975E-2,-1.1590018E0,2.4793416E-1,9.374006E-3,-3.254833E-1,-1.936159E-1],"categories":[],"categories_nodes":[],"categories_segments":[],"categories_sizes":[],"default_left":[0,0,0,0,0,0,0,0,0,0,0,0,0,0,0],"id":10,"left_children":[1,-1,3,5,7,-1,9,-1,-1,11,13,-1,-1,-1,-1],"loss_changes":[1.0546023E2,0E0,1.8172638E2,2.753815E1,1.4007034E1,0E0,3.9710587E1,0E0,0E0,2.8408098E1,1.1063652E0,0E0,0E0,0E0,0E0],"parents":[2147483647,0,0,2,2,3,3,4,4,6,6,9,9,10,10],"right_children":[2,-1,4,6,8,-1,10,-1,-1,12,14,-1,-1,-1,-1],"split_conditions":[-4.684741E-1,2.2188888E-1,8.4884316E-2,-2.668174E-1,-1.02426074E-1,2.5698668E-1,-9.5678E-2,9.185827E-3,-2.2304691E-1,-4.244451E-2,9.680519E-2,2.4793416E-1,9.374006E-3,-3.254833E-1,-1.936159E-1],"split_indices":[1,0,2,0,1,0,2,0,0,0,1,0,0,0,0],"split_type":[0,0,0,0,0,0,0,0,0,0,0,0,0,0,0],"sum_hessian":[1.392091E3,8.566035E1,1.3064305E3,1.1082147E3,1.9821585E2,1.958937E1,1.0886254E3,1.2517034E1,1.8569882E2,1.062596E3,2.6029339E1,2.2194382E1,1.0404016E3,8.489977E0,1.7539362E1],"tree_param":{"num_deleted":"0","num_feature":"3","num_nodes":"15","size_leaf_vector":"1"}},{"base_weights":[-1.771284E-3,2.1839343E-1,-5.9749156E-2,6.5781794E-2,-1.0130074E0,1.7443877E-1,-1.385295E-1,-1.277414E-1,-2.2161435E-1,-9.370527E-2,3.287109E-1,1.7814544E-1,-5.820306E-1,2.170748E-1,-3.6826078E-2,1.8230732E-1,4.7015455E-2,2.0379713E-1,-3.8339335E-2,-3.280196E-1,-9.469025E-2],"categories":[],"categories_nodes":[],"categories_segments":[],"categories_sizes":[],"default_left":[0,0,0,0,0,0,0,0,0,0,0,0,0,0,0,0,0,0,0,0,0],"id":11,"left_children":[1,-1,3,5,7,9,11,-1,-1,13,15,17,19,-1,-1,-1,-1,-1,-1,-1,-1],"loss_changes":[7.898726E1,0E0,1.5042847E2,2.4694057E1,9.8410034E-1,3.0059046E1,5.4367455E1,0E0,0E0,2.354456E1,2.606456E1,6.3153263E1,2.0573826E1,0E0,0E0,0E0,0E0,0E0,0E0,0E0,0E0],"parents":[2147483647,0,0,2,2,3,3,4,4,5,5,6,6,9,9,10,10,11,11,12,12],"right_children":[2,-1,4,6,8,10,12,-1,-1,14,16,18,20,-1,-1,-1,-1,-1,-1,-1,-1],"split_conditions":[-4.684741E-1,2.1839343E-1,2.0718735E-1,-6.3123924E-1,3.4446388E-1,-3.2574516E-2,4.2465988E-1,-1.277414E-1,-2.2161435E-1,5.4351944E-1,7.233871E-1,-3.70259E-1,7.8032794E-3,2.170748E-1,-3.6826078E-2,1.8230732E-1,4.7015455E-2,2.0379713E-1,-3.8339335E-2,-3.280196E-1,-9.469025E-2],"split_indices":[1,0,2,2,2,1,0,0,0,0,0,2,1,0,0,0,0,0,0,0,0],"split_type":[0,0,0,0,0,0,0,0,0,0,0,0,0,0,0,0,0,0,0,0,0],"sum_hessian":[1.3255314E3,6.999184E1,1.2555396E3,1.110264E3,1.4527545E2,7.248957E2,3.8536835E2,1.0180422E1,1.3509503E2,2.648852E2,4.6001053E2,2.2518027E2,1.6018808E2,1.679023E1,2.4809496E2,7.722863E1,3.827819E2,7.0445885E1,1.5473438E2,1.8895811E1,1.4129228E2],"tree_param":{"num_deleted":"0","num_feature":"3","num_nodes":"21","size_leaf_vector":"1"}},{"base_weights":[-1.0694484E-2,9.3341243E-1,-6.395241E-2,2.1778452E-1,4.8791114E-2,4.5526903E-2,-9.5179844E-1,2.2608525E-1,-1.0464254E-1,-3.4857467E-2,-1.015165E0,-2.2794655E-1,3.4543172E-1,-4.6622506E-3,-7.032269E-1,-1.4463839E-1,-2.2047779E-1,1.8743994E-2,-1.6444452E-1,2.2399417E-1,2.920353E-2,2.5302497E-1,-9.361017E-3,-6.7020524E-1,-9.5070384E-2],"categories":[],"categories_nodes":[],"categories_segments":[],"categories_sizes":[],"default_left":[0,0,0,0,0,0,0,0,0,0,0,0,0,0,0,0,0,0,0,0,0,0,0,0,0],"id":12,"left_children":[1,3,5,-1,-1,7,9,11,13,-1,15,17,19,21,23,-1,-1,-1,-1,-1,-1,-1,-1,-1,-1],"loss_changes":[6.404179E1,3.9916077E0,1.1721623E2,0E0,0E0,2.9147152E1,6.4462204E0,2.6523085E1,3.513148E1,0E0,8.341217E-2,1.7607958E1,5.6725937E1,2.3625792E1,5.1351414E1,0E0,0E0,0E0,0E0,0E0,0E0,0E0,0E0,0E0,0E0],"parents":[2147483647,0,0,1,1,2,2,5,5,6,6,7,7,8,8,10,10,11,11,12,12,13,13,14,14],"right_children":[2,4,6,-1,-1,8,10,12,14,-1,16,18,20,22,24,-1,-1,-1,-1,-1,-1,-1,-1,-1,-1],"split_conditions":[-3.8347322E-1,-4.5283216E-1,8.4884316E-2,2.1778452E-1,4.8791114E-2,-7.7291024E-1,-1.0740538E-1,-1.5934984E-1,7.872239E-1,-3.4857467E-2,1.1383988E-2,-8.883974E-1,8.340012E-1,-2.668174E-1,8.998754E-2,-1.4463839E-1,-2.2047779E-1,1.8743994E-2,-1.6444452E-1,2.2399417E-1,2.920353E-2,2.5302497E-1,-9.361017E-3,-6.7020524E-1,-9.5070384E-2],"split_indices":[1,0,2,0,0,2,1,1,0,0,1,2,0,0,1,0,0,0,0,0,0,0,0,0,0],"split_type":[0,0,0,0,0,0,0,0,0,0,0,0,0,0,0,0,0,0,0,0,0,0,0,0,0],"sum_hessian":[1.2714862E3,6.7013145E1,1.204473E3,5.9158825E1,7.854318E0,1.0730991E3,1.3137393E2,4.870192E2,5.860799E2,1.0041149E1,1.2133279E2,1.01181755E2,3.8583743E2,5.0306226E2,8.301765E1,8.461882E0,1.1287091E2,6.4518616E1,3.6663136E1,8.709629E1,2.9874115E2,1.5109496E1,4.8795276E2,6.8465676E0,7.617108E1],"tree_param":{"num_deleted":"0","num_feature":"3","num_nodes":"25","size_leaf_vector":"1"}},{"base_weights":[-1.3313464E-2,2.1498926E-1,-5.338271E-2,2.8225394E-2,-2.1398103E-1,2.3571393E-1,1.1717612E-2,3.6980625E-2,-2.1314803E-1,2.151735E-1,2.6351006E-3],"categories":[],"categories_nodes":[],"categories_segments":[],"categories_sizes":[],"default_left":[0,0,0,0,0,0,0,0,0,0,0],"id":13,"left_children":[1,-1,3,5,-1,-1,7,9,-1,-1,-1],"loss_changes":[5.065566E1,0E0,9.234038E1,1.950053E1,0E0,0E0,2.7675861E1,2.5271194E1,0E0,0E0,0E0],"parents":[2147483647,0,0,2,2,3,3,6,6,7,7],"right_children":[2,-1,4,6,-1,-1,8,10,-1,-1,-1],"split_conditions":[-4.9482414E-1,2.1498926E-1,2.905561E-1,-3.860776E-1,-2.1398103E-1,2.3571393E-1,-3.202684E-2,-8.6693935E-2,-2.1314803E-1,2.151735E-1,2.6351006E-3],"split_indices":[1,0,2,0,0,0,2,0,0,0,0],"split_type":[0,0,0,0,0,0,0,0,0,0,0],"sum_hessian":[1.2349236E3,4.5687656E1,1.189236E3,1.0960854E3,9.315051E1,1.5543944E1,1.0805415E3,1.0551532E3,2.5388247E1,2.5068525E1,1.0300847E3],"tree_param":{"num_deleted":"0","num_feature":"3","num_nodes":"11","size_leaf_vector":"1"}},{"base_weights":[-9.742422E-3,2.1283983E-1,-4.3438926E-2,2.7819904E-2,-9.614685E-1,2.2219042E-1,-7.4729666E-2,-9.5337585E-2,-2.1567254E-1,-2.8000057E-1,3.239771E-1,8.09402E-1,-1.05409935E-1,-1.200509E-2,-2.7853274E-1,2.0598039E-1,3.3817742E-2,2.3769583E-1,5.2555233E-2,-1.1539961E-2,-1.864363E-1],"categories":[],"categories_nodes":[],"categories_segments":[],"categories_sizes":[],"default_left":[0,0,0,0,0,0,0,0,0,0,0,0,0,0,0,0,0,0,0,0,0],"id":14,"left_children":[1,-1,3,5,7,9,11,-1,-1,13,15,17,19,-1,-1,-1,-1,-1,-1,-1,-1],"loss_changes":[4.088948E1,0E0,7.6202896E1,2.1574787E1,1.7143478E0,1.9197802E1,1.9310638E1,0E0,0E0,1.451484E1,3.2900208E1,3.8335657E0,2.7003094E1,0E0,0E0,0E0,0E0,0E0,0E0,0E0,0E0],"parents":[2147483647,0,0,2,2,3,3,4,4,5,5,6,6,9,9,10,10,11,11,12,12],"right_children":[2,-1,4,6,8,10,12,-1,-1,14,16,18,20,-1,-1,-1,-1,-1,-1,-1,-1],"split_conditions":[-4.684741E-1,2.1283983E-1,2.0718735E-1,-8.2945144E-1,-7.6077946E-2,-2.0761734E-1,-2.3262897E-1,-9.5337585E-2,-2.1567254E-1,8.961662E-1,8.571215E-1,4.6288826E-2,-1.7299217E-1,-1.200509E-2,-2.7853274E-1,2.0598039E-1,3.3817742E-2,2.3769583E-1,5.2555233E-2,-1.1539961E-2,-1.864363E-1],"split_indices":[1,0,2,2,1,1,0,0,0,0,0,2,2,0,0,0,0,0,0,0,0],"split_type":[0,0,0,0,0,0,0,0,0,0,0,0,0,0,0,0,0,0,0,0,0],"sum_hessian":[1.2013885E3,3.793098E1,1.1634576E3,1.0805531E3,8.290446E1,3.72796E2,7.0775714E2,8.256666E0,7.464779E1,6.253121E1,3.1026477E2,2.2884987E1,6.848722E2,5.2209564E1,1.0321648E1,6.2531124E1,2.4773366E2,1.4196582E1,8.688405E0,6.430694E2,4.18028E1],"tree_param":{"num_deleted":"0","num_feature":"3","num_nodes":"21","size_leaf_vector":"1"}},{"base_weights":[2.2059379E-3,2.1070918E-1,-2.5777591E-2,2.939508E-2,-2.1134815E-1,1.0735212E-2,2.5001934E-1,2.1578548E-2,-3.3608964E-1,-1.3004459E-2,5.024606E-2],"categories":[],"categories_nodes":[],"categories_segments":[],"categories_sizes":[],"default_left":[0,0,0,0,0,0,0,0,0,0,0],"id":15,"left_children":[1,-1,3,5,-1,7,-1,9,-1,-1,-1],"loss_changes":[3.237252E1,0E0,6.0803368E1,2.303133E1,0E0,1.8342205E1,0E0,1.8712914E1,0E0,0E0,0E0],"parents":[2147483647,0,0,2,2,3,3,5,5,7,7],"right_children":[2,-1,4,6,-1,8,-1,10,-1,-1,-1],"split_conditions":[-4.9482414E-1,2.1070918E-1,3.4446388E-1,8.0143917E-1,-2.1134815E-1,1.6791672E0,2.5001934E-1,1.9454241E-1,-3.3608964E-1,-1.3004459E-2,5.024606E-2],"split_indices":[1,0,2,1,0,0,0,1,0,0,0],"split_type":[0,0,0,0,0,0,0,0,0,0,0],"sum_hessian":[1.1711096E3,3.1366549E1,1.139743E3,1.0790586E3,6.068446E1,1.0627247E3,1.6333796E1,1.0564939E3,6.2309275E0,7.629545E2,2.935393E2],"tree_param":{"num_deleted":"0","num_feature":"3","num_nodes":"11","size_leaf_vector":"1"}},{"base_weights":[-3.4345293E-3,1.967776E-2,-2.0432769E-1,2.0809107E-1,-2.6006566E-3,2.1742675E-2,-1.9817205E-1,8.257056E-3,2.2024018E-1,1.047907E-2,-1.1644949E-1],"categories":[],"categories_nodes":[],"categories_segments":[],"categories_sizes":[],"default_left":[0,0,0,0,0,0,0,0,0,0,0],"id":16,"left_children":[1,3,-1,-1,5,7,-1,9,-1,-1,-1],"loss_changes":[2.5214863E1,2.3771515E1,0E0,0E0,2.4642023E1,1.4505415E1,0E0,2.386549E1,0E0,0E0,0E0],"parents":[2147483647,0,0,1,1,4,4,5,5,7,7],"right_children":[2,4,-1,-1,6,8,-1,10,-1,-1,-1],"split_conditions":[1.5546516E0,-4.9482414E-1,-2.0432769E-1,2.0809107E-1,3.099477E-1,8.0143917E-1,-1.9817205E-1,6.185373E-1,2.2024018E-1,1.047907E-2,-1.1644949E-1],"split_indices":[2,1,0,0,2,1,0,1,0,0,0],"split_type":[0,0,0,0,0,0,0,0,0,0,0],"sum_hessian":[1.1404836E3,1.1144918E3,2.5991842E1,2.439431E1,1.0900975E3,1.063155E3,2.6942472E1,1.0501603E3,1.2994698E1,9.7887274E2,7.128757E1],"tree_param":{"num_deleted":"0","num_feature":"3","num_nodes":"11","size_leaf_vector":"1"}},{"base_weights":[-1.7778007E-2,6.703749E-1,-4.590014E-2,2.1011162E-1,-1.8658907E-3,9.920856E-3,-7.5345594E-1,-8.098769E-2,3.2680503E-1,-4.904809E-2,-2.0780452E-1,6.959537E-1,-1.338659E-1,6.0914767E-1,-1.7052725E-1,6.570315E-2,-7.1791805E-2,2.4052027E-1,1.3437176E-3,-1.1810458E-2,-1.7266482E-1,1.6243011E-1,-9.040511E-2,-1.10529095E-1,1.8046649E-1],"categories":[],"categories_nodes":[],"categories_segments":[],"categories_sizes":[],"default_left":[0,0,0,0,0,0,0,0,0,0,0,0,0,0,0,0,0,0,0,0,0,0,0,0,0],"id":17,"left_children":[1,3,5,-1,-1,7,9,11,13,15,-1,17,19,21,23,-1,-1,-1,-1,-1,-1,-1,-1,-1,-1],"loss_changes":[2.1708475E1,9.437365E0,4.254978E1,0E0,0E0,2.8814964E1,1.2233429E1,3.2029682E1,3.1414309E1,2.1478717E0,0E0,1.4808876E1,3.8609562E1,2.2810814E1,2.9290752E1,0E0,0E0,0E0,0E0,0E0,0E0,0E0,0E0,0E0,0E0],"parents":[2147483647,0,0,1,1,2,2,5,5,6,6,7,7,8,8,9,9,11,11,12,12,13,13,14,14],"right_children":[2,4,6,-1,-1,8,10,12,14,16,-1,18,20,22,24,-1,-1,-1,-1,-1,-1,-1,-1,-1,-1],"split_conditions":[-3.239224E-1,6.750206E-1,-8.04921E-2,2.1011162E-1,-1.8658907E-3,2.8633302E-1,2.359526E-2,1.1530812E-1,6.185373E-1,-1.1302353E-1,-2.0780452E-1,-1.887949E-1,-4.4946027E-1,-3.2127938E-1,7.663883E-1,6.570315E-2,-7.1791805E-2,2.4052027E-1,1.3437176E-3,-1.1810458E-2,-1.7266482E-1,1.6243011E-1,-9.040511E-2,-1.10529095E-1,1.8046649E-1],"split_indices":[1,0,2,0,0,1,1,0,1,1,0,2,2,2,1,0,0,0,0,0,0,0,0,0,0],"split_type":[0,0,0,0,0,0,0,0,0,0,0,0,0,0,0,0,0,0,0,0,0,0,0,0,0],"sum_hessian":[1.1191602E3,4.3043407E1,1.0761167E3,2.908976E1,1.3953648E1,9.983409E2,7.777584E1,7.763609E2,2.2198E2,1.8886595E1,5.8889248E1,4.8696712E1,7.276642E2,1.4145126E2,8.052874E1,8.393431E0,1.0493164E1,2.9542707E1,1.9154007E1,6.529638E2,7.47004E1,1.2345772E2,1.7993542E1,6.036693E1,2.016181E1],"tree_param":{"num_deleted":"0","num_feature":"3","num_nodes":"25","size_leaf_vector":"1"}},{"base_weights":[-1.85817E-2,2.0356944E-1,-3.470162E-2,-3.7782893E-3,-2.0826526E-1,2.48344E-1,-5.1024858E-2,1.1895342E0,-1.2063279E-1,4.419921E-2,-7.1136457E-1,1.1502513E-1,3.056146E-1,1.9601454E-1,-7.124534E-2,2.0162416E-1,-2.48552E-3,-2.6755792E-1,-7.685574E-2],"categories":[],"categories_nodes":[],"categories_segments":[],"categories_sizes":[],"default_left":[0,0,0,0,0,0,0,0,0,0,0,0,0,0,0,0,0,0,0],"id":18,"left_children":[1,-1,3,5,-1,7,9,11,13,15,17,-1,-1,-1,-1,-1,-1,-1,-1],"loss_changes":[1.7376118E1,0E0,3.1701273E1,1.2574457E1,0E0,5.8000305E1,5.5929173E1,6.6838226E0,2.709431E1,3.918509E1,2.0930328E1,0E0,0E0,0E0,0E0,0E0,0E0,0E0,0E0],"parents":[2147483647,0,0,2,2,3,3,5,5,6,6,7,7,8,8,9,9,10,10],"right_children":[2,-1,4,6,-1,8,10,12,14,16,18,-1,-1,-1,-1,-1,-1,-1,-1],"split_conditions":[-4.684741E-1,2.0356944E-1,3.783317E-1,3.402129E-1,-2.0826526E-1,-3.5611984E-1,-5.333015E-1,-1.2367349E-1,-1.3020726E-1,5.317256E-1,1.8184352E-1,1.1502513E-1,3.056146E-1,1.9601454E-1,-7.124534E-2,2.0162416E-1,-2.48552E-3,-2.6755792E-1,-7.685574E-2],"split_indices":[1,0,2,0,0,2,2,1,1,0,1,0,0,0,0,0,0,0,0],"split_type":[0,0,0,0,0,0,0,0,0,0,0,0,0,0,0,0,0,0,0],"sum_hessian":[1.1041665E3,1.703724E1,1.0871293E3,1.0535565E3,3.3572697E1,1.6560118E2,8.879554E2,4.601126E1,1.1958991E2,7.7686145E2,1.1109397E2,1.3436897E1,3.2574364E1,1.9809504E1,9.978041E1,4.439341E1,7.32468E2,4.256056E1,6.853341E1],"tree_param":{"num_deleted":"0","num_feature":"3","num_nodes":"19","size_leaf_vector":"1"}},{"base_weights":[3.4551718E-3,2.0090346E-1,-9.95477E-3,1.700886E-2,-2.0181139E-1,2.126382E-1,6.3213645E-3,2.3772307E-2,-8.2377875E-1,2.2590159E-1,1.0263053E-3,-1.0602234E-1,-2.2918801E-1],"categories":[],"categories_nodes":[],"categories_segments":[],"categories_sizes":[],"default_left":[0,0,0,0,0,0,0,0,0,0,0,0,0],"id":19,"left_children":[1,-1,3,5,-1,-1,7,9,11,-1,-1,-1,-1],"loss_changes":[1.3547001E1,0E0,2.6814123E1,1.0810675E1,0E0,0E0,1.4826898E1,1.967482E1,1.1942282E0,0E0,0E0,0E0,0E0],"parents":[2147483647,0,0,2,2,3,3,6,6,7,7,8,8],"right_children":[2,-1,4,6,-1,-1,8,10,12,-1,-1,-1,-1],"split_conditions":[-4.684741E-1,2.0090346E-1,3.4446388E-1,-3.860776E-1,-2.0181139E-1,2.126382E-1,-4.9192213E-2,-6.0880557E-2,4.6288826E-2,2.2590159E-1,1.0263053E-3,-1.0602234E-1,-2.2918801E-1],"split_indices":[1,0,2,0,0,0,2,0,2,0,0,0,0],"split_type":[0,0,0,0,0,0,0,0,0,0,0,0,0],"sum_hessian":[1.0741583E3,1.4149469E1,1.0600089E3,1.0313042E3,2.8704708E1,1.0125095E1,1.0211791E3,1.0011045E3,2.0074554E1,1.7005476E1,9.84099E2,1.0027673E1,1.0046882E1],"tree_param":{"num_deleted":"0","num_feature":"3","num_nodes":"13","size_leaf_vector":"1"}},{"base_weights":[-7.6459623E-3,1.05735555E-1,-1.4780796E-1,-8.884193E-2,3.1742528E-1,1.9653527E-1,-2.1099927E-1,9.024606E-2,-4.8734137E-1,4.9769086E-1,-1.4988042E-1,-8.395132E-2,-6.3307226E-1,-1.8770054E-1,5.1455E-1,-2.1857718E-1,-5.3299856E-1,2.5673485E-1,4.0396872E-1,4.925519E-1,-4.7506902E-1,8.732311E-2,-5.478806E-1,-2.2320664E0,-3.2969883E-1,-8.841783E-2,2.0068689E-1,1.6246839E-1,-1.9440098E-1,-1.886479E-2,-3.49162E-1,1.1361472E-1,-1.2119438E-1,4.744233E-2,1.802709E-1,-4.587034E-1,-1.2357075E-2,1.1272625E-3,3.7271696E-1,-1.3024347E-2,-1.6113351E-1,-2.8121683E-1,-5.688862E-1,1.0876414E-1,-1.2531832E-1],"categories":[],"categories_nodes":[],"categories_segments":[],"categories_sizes":[],"default_left":[0,0,0,0,0,0,0,0,0,0,0,0,0,0,0,0,0,0,0,0,0,0,0,0,0,0,0,0,0,0,0,0,0,0,0,0,0,0,0,0,0,0,0,0,0],"id":20,"left_children":[1,3,5,7,9,-1,11,13,15,17,19,21,23,25,27,29,-1,-1,31,33,35,37,39,41,43,-1,-1,-1,-1,-1,-1,-1,-1,-1,-1,-1,-1,-1,-1,-1,-1,-1,-1,-1,-1],"loss_changes":[1.6979404E1,2.4358583E1,3.249048E1,2.2065125E1,2.3924515E1,0E0,2.4181194E1,2.5303041E1,5.129653E1,1.3059196E1,1.6859526E1,2.7741405E1,4.991236E1,3.3684967E1,3.0662954E1,1.5666252E1,0E0,0E0,2.3142727E1,2.4082618E0,3.718156E1,3.4794136E1,9.48155E0,3.045578E0,1.9582113E1,0E0,0E0,0E0,0E0,0E0,0E0,0E0,0E0,0E0,0E0,0E0,0E0,0E0,0E0,0E0,0E0,0E0,0E0,0E0,0E0],"parents":[2147483647,0,0,1,1,2,2,3,3,4,4,6,6,7,7,8,8,9,9,10,10,11,11,12,12,13,13,14,14,15,15,18,18,19,19,20,20,21,21,22,22,23,23,24,24],"right_children":[2,4,6,8,10,-1,12,14,16,18,20,22,24,26,28,30,-1,-1,32,34,36,38,40,42,44,-1,-1,-1,-1,-1,-1,-1,-1,-1,-1,-1,-1,-1,-1,-1,-1,-1,-1,-1,-1],"split_conditions":[-6.967081E-1,3.0413728E-2,-2.3283216E-1,8.5106766E-1,1.3162748E0,1.9653527E-1,6.3488644E-1,7.543605E-1,-8.6634314E-1,7.7341115E-1,-9.6985996E-1,-2.5893688E-1,7.976121E-2,-3.2574516E-2,-8.2139057E-1,1.2199631E0,-5.3299856E-1,2.5673485E-1,-7.4080926E-1,-1.0021442E0,5.233093E-1,3.7104946E-1,8.356425E-2,6.5682024E-1,-6.621547E-1,-8.841783E-2,2.0068689E-1,1.6246839E-1,-1.9440098E-1,-1.886479E-2,-3.49162E-1,1.1361472E-1,-1.2119438E-1,4.744233E-2,1.802709E-1,-4.587034E-1,-1.2357075E-2,1.1272625E-3,3.7271696E-1,-1.3024347E-2,-1.6113351E-1,-2.8121683E-1,-5.688862E-1,1.0876414E-1,-1.2531832E-1],"split_indices":[2,1,1,0,0,0,0,0,2,0,2,2,1,1,2,0,0,0,2,2,1,1,1,0,2,0,0,0,0,0,0,0,0,0,0,0,0,0,0,0,0,0,0,0,0],"split_type":[0,0,0,0,0,0,0,0,0,0,0,0,0,0,0,0,0,0,0,0,0,0,0,0,0,0,0,0,0,0,0,0,0,0,0,0,0,0,0,0,0,0,0,0,0],"sum_hessian":[1.066456E3,5.896859E2,4.767702E2,3.075643E2,2.821216E2,2.5835135E1,4.5093506E2,2.1273396E2,9.483035E1,2.0353998E2,7.858162E1,3.475255E2,1.0340955E2,1.2887204E2,8.386192E1,8.4637856E1,1.0192498E1,2.244766E1,1.8109232E2,2.6235981E1,5.2345642E1,2.5441266E2,9.311285E1,1.547704E1,8.793251E1,1.0782228E2,2.1049755E1,7.185678E1,1.2005139E1,7.850481E1,6.133049E0,1.6028546E2,2.0806854E1,1.5790584E1,1.0445397E1,9.599555E0,4.2746086E1,2.4339502E2,1.1017638E1,2.826005E1,6.48528E1,6.307334E0,9.169706E0,2.044335E1,6.748916E1],"tree_param":{"num_deleted":"0","num_feature":"3","num_nodes":"45","size_leaf_vector":"1"}},{"base_weights":[1.6957227E-2,7.312166E-2,-2.2248955E-1,1.1529254E0,1.5514655E-2,1.0031326E-1,-8.1628156E-1,6.90238E-1,2.9690868E-1,-8.9876145E-2,2.620886E-1,9.1950285E-1,-1.7232959E-1,-3.328026E-1,-6.0375404E-1,2.537605E-1,-3.2809568E-3,9.037511E-3,-1.0259019E0,5.356243E-1,-1.6335353E-1,4.4972796E-2,2.4116373E-1,7.271833E-1,-4.379547E-1,-1.8953405E-1,-8.932202E-1,1.7754508E-2,-1.8414348E-1,-1.4523666E-1,-3.260879E-1,1.56075E-1,-5.8170818E-2,1.1408532E-2,-3.5823187E-1,2.011391E-1,7.2828636E-2,-4.115007E-2,-1.9657072E-1,-1.4630964E-1,1.3286946E-2,-2.4785945E-1,-4.61889E-2],"categories":[],"categories_nodes":[],"categories_segments":[],"categories_sizes":[],"default_left":[0,0,0,0,0,0,0,0,0,0,0,0,0,0,0,0,0,0,0,0,0,0,0,0,0,0,0,0,0,0,0,0,0,0,0,0,0,0,0,0,0,0,0],"id":21,"left_children":[1,3,5,7,9,11,13,15,-1,17,19,21,23,-1,25,-1,-1,27,29,31,33,-1,-1,35,37,39,41,-1,-1,-1,-1,-1,-1,-1,-1,-1,-1,-1,-1,-1,-1,-1,-1],"loss_changes":[1.3993716E1,5.23969E1,3.797963E1,3.77277E0,2.0837818E1,2.896468E1,1.0097321E1,5.8576484E0,0E0,5.2030327E1,2.8027813E1,4.6173058E0,2.3641018E1,0E0,6.531969E0,0E0,0E0,3.306748E1,8.281422E0,2.345309E1,3.1254013E1,0E0,0E0,1.5650806E0,8.831632E0,3.0781524E0,5.696352E0,0E0,0E0,0E0,0E0,0E0,0E0,0E0,0E0,0E0,0E0,0E0,0E0,0E0,0E0,0E0,0E0],"parents":[2147483647,0,0,1,1,2,2,3,3,4,4,5,5,6,6,7,7,9,9,10,10,11,11,12,12,14,14,17,17,18,18,19,19,20,20,23,23,24,24,25,25,26,26],"right_children":[2,4,6,8,10,12,14,16,-1,18,20,22,24,-1,26,-1,-1,28,30,32,34,-1,-1,36,38,40,42,-1,-1,-1,-1,-1,-1,-1,-1,-1,-1,-1,-1,-1,-1,-1,-1],"split_conditions":[-4.362946E-1,4.2465988E-1,2.2670607E-1,-1.0740538E-1,1.8184352E-1,-2.5893688E-1,8.356425E-2,-5.333015E-1,2.9690868E-1,-6.017682E-1,1.2469361E0,-1.17646754E-1,-1.3020726E-1,-3.328026E-1,3.7628224E-1,2.537605E-1,-3.2809568E-3,1.0675254E0,5.4351944E-1,5.9198046E-1,-7.9680794E-1,4.4972796E-2,2.4116373E-1,-2.9913092E-1,1.1647776E-1,1.6006008E-1,4.0156984E-1,1.7754508E-2,-1.8414348E-1,-1.4523666E-1,-3.260879E-1,1.56075E-1,-5.8170818E-2,1.1408532E-2,-3.5823187E-1,2.011391E-1,7.2828636E-2,-4.115007E-2,-1.9657072E-1,-1.4630964E-1,1.3286946E-2,-2.4785945E-1,-4.61889E-2],"split_indices":[2,0,0,1,1,2,1,2,0,2,0,1,1,0,0,0,0,0,0,1,2,0,0,1,2,1,1,0,0,0,0,0,0,0,0,0,0,0,0,0,0,0,0],"split_type":[0,0,0,0,0,0,0,0,0,0,0,0,0,0,0,0,0,0,0,0,0,0,0,0,0,0,0,0,0,0,0,0,0,0,0,0,0,0,0,0,0,0,0],"sum_hessian":[1.0383397E3,8.416238E2,1.9671594E2,4.1663147E1,7.9996063E2,1.2797566E2,6.874027E1,1.5547003E1,2.6116144E1,5.608691E2,2.3909154E2,3.1364511E1,9.661115E1,1.3851073E1,5.48892E1,8.696468E0,6.8505344E0,5.081601E2,5.2709003E1,1.453686E2,9.372293E1,7.6761923E0,2.3688318E1,2.1629017E1,7.498214E1,2.3259754E1,3.1629446E1,4.6915634E2,3.9003765E1,3.2694077E1,2.0014929E1,1.1702175E2,2.834685E1,8.284468E1,1.0878254E1,1.2928128E1,8.700889E0,5.0720634E1,2.4261501E1,7.2448096E0,1.6014944E1,2.2106611E1,9.522834E0],"tree_param":{"num_deleted":"0","num_feature":"3","num_nodes":"43","size_leaf_vector":"1"}},{"base_weights":[-2.1808691E-2,9.971499E-2,-9.774532E-2,-2.3549251E-1,2.1351787E-1,-6.652704E-2,-2.5579596E-1,-5.1482342E-2,-1.7199926E-1,9.768238E-1,9.2681274E-2,1.8794328E-1,-9.670862E-2,-4.632985E-1,8.0598867E-1,9.206883E-2,2.3345879E-1,-5.6048745E-1,2.4057467E-1,-6.6131555E-2,-2.02333E-1,8.4441766E-2,-1.2741838E-1,7.951067E-2,2.2645472E-1,6.452969E-3,-4.2115185E-1,2.1649475E-1,9.096676E-3,-3.0781686E-2,6.28438E-2],"categories":[],"categories_nodes":[],"categories_segments":[],"categories_sizes":[],"default_left":[0,0,0,0,0,0,0,0,0,0,0,0,0,0,0,0,0,0,0,0,0,0,0,0,0,0,0,0,0,0,0],"id":22,"left_children":[1,3,5,7,9,11,-1,13,-1,15,17,-1,19,21,23,-1,-1,25,27,29,-1,-1,-1,-1,-1,-1,-1,-1,-1,-1,-1],"loss_changes":[9.3594E0,1.493269E1,2.1391895E1,1.0403611E1,2.6821218E1,1.7481554E1,0E0,2.7287722E1,0E0,2.0909004E0,2.457455E1,0E0,1.5316589E1,6.257375E0,2.3885002E0,0E0,0E0,3.935818E1,3.1702671E1,1.6162586E1,0E0,0E0,0E0,0E0,0E0,0E0,0E0,0E0,0E0,0E0,0E0],"parents":[2147483647,0,0,1,1,2,2,3,3,4,4,5,5,7,7,9,9,10,10,12,12,13,13,14,14,17,17,18,18,19,19],"right_children":[2,4,6,8,10,12,-1,14,-1,16,18,-1,20,22,24,-1,-1,26,28,30,-1,-1,-1,-1,-1,-1,-1,-1,-1,-1,-1],"split_conditions":[-8.089548E-1,-1.5301326E-1,1.1807607E0,8.8428074E-1,8.224237E-1,-2.692469E-1,-2.5579596E-1,7.7341115E-1,-1.7199926E-1,-1.2367349E-1,-2.8671918E-2,1.8794328E-1,2.0718735E-1,6.750206E-1,-2.692469E-1,9.206883E-2,2.3345879E-1,-8.8593936E-1,9.7606045E-1,2.8633302E-1,-2.02333E-1,8.4441766E-2,-1.2741838E-1,7.951067E-2,2.2645472E-1,6.452969E-3,-4.2115185E-1,2.1649475E-1,9.096676E-3,-3.0781686E-2,6.28438E-2],"split_indices":[2,1,0,0,0,1,0,0,0,1,1,0,2,0,1,0,0,2,0,1,0,0,0,0,0,0,0,0,0,0,0],"split_type":[0,0,0,0,0,0,0,0,0,0,0,0,0,0,0,0,0,0,0,0,0,0,0,0,0,0,0,0,0,0,0],"sum_hessian":[1.01217224E3,3.8912717E2,6.2304504E2,9.835431E1,2.9077286E2,6.069147E2,1.6130386E1,7.521849E1,2.3135815E1,3.877205E1,2.5200081E2,1.7853256E1,5.890614E2,5.112464E1,2.4093853E1,7.744868E0,3.102718E1,4.6009747E1,2.0599107E2,5.697028E2,1.935856E1,6.6507173E0,4.4473923E1,9.870849E0,1.4223004E1,3.314931E1,1.2860432E1,4.1062702E1,1.6492836E2,4.686772E2,1.0102564E2],"tree_param":{"num_deleted":"0","num_feature":"3","num_nodes":"31","size_leaf_vector":"1"}},{"base_weights":[1.6434819E-2,-1.6975078E-1,7.576117E-2,-2.1772054E-1,2.057752E-1,9.666114E-2,-1.9615476E-1,-1.1645215E-1,-9.963608E-1,7.6899625E-2,8.480369E-1,-2.647037E-1,5.8229226E-1,-1.2429749E-1,-4.0135777E-1,1.0327864E-1,-6.9285905E-1,2.3235066E-1,9.215457E-2,3.0586755E-2,-1.2525259E-1,1.768008E-1,-4.340826E-2,2.1032517E-1,1.8460948E-2,-9.2731394E-2,-1.8248533E-1],"categories":[],"categories_nodes":[],"categories_segments":[],"categories_sizes":[],"default_left":[0,0,0,0,0,0,0,0,0,0,0,0,0,0,0,0,0,0,0,0,0,0,0,0,0,0,0],"id":23,"left_children":[1,3,5,7,-1,9,-1,11,13,15,17,19,21,-1,-1,23,25,-1,-1,-1,-1,-1,-1,-1,-1,-1,-1],"loss_changes":[1.0979932E1,1.3289838E1,1.5775475E1,1.812284E1,0E0,1.0908628E1,0E0,2.147476E1,8.605766E0,1.4716328E1,1.4234571E0,2.2549473E1,7.2241707E0,0E0,0E0,1.0202444E1,6.384859E-1,0E0,0E0,0E0,0E0,0E0,0E0,0E0,0E0,0E0,0E0],"parents":[2147483647,0,0,1,1,2,2,3,3,5,5,7,7,8,8,9,9,10,10,11,11,12,12,15,15,16,16],"right_children":[2,4,6,8,-1,10,-1,12,14,16,18,20,22,-1,-1,24,26,-1,-1,-1,-1,-1,-1,-1,-1,-1,-1],"split_conditions":[-9.0520285E-2,9.5016795E-1,1.4811605E-1,8.8428074E-1,2.057752E-1,7.663883E-1,-1.9615476E-1,7.7341115E-1,-9.4311434E-1,7.167033E-1,-8.0263203E-1,6.006251E-1,-8.883974E-1,-1.2429749E-1,-4.0135777E-1,-1.3155478E-1,-7.553815E-1,2.3235066E-1,9.215457E-2,3.0586755E-2,-1.2525259E-1,1.768008E-1,-4.340826E-2,2.1032517E-1,1.8460948E-2,-9.2731394E-2,-1.8248533E-1],"split_indices":[1,0,2,0,0,1,0,0,2,1,2,0,2,0,0,0,2,0,0,0,0,0,0,0,0,0,0],"split_type":[0,0,0,0,0,0,0,0,0,0,0,0,0,0,0,0,0,0,0,0,0,0,0,0,0,0,0],"sum_hessian":[9.918803E2,2.392316E2,7.5264874E2,2.3030617E2,8.925423E0,7.3806256E2,1.4586175E1,2.0481757E2,2.5488604E1,7.202227E2,1.7839838E1,1.6948036E2,3.5337215E1,1.851358E1,6.9750223E0,6.9719617E2,2.3026524E1,1.0253099E1,7.5867386E0,7.509228E1,9.4388084E1,2.684364E1,8.493575E0,1.1844594E1,6.8535156E2,1.034373E1,1.2682795E1],"tree_param":{"num_deleted":"0","num_feature":"3","num_nodes":"27","size_leaf_vector":"1"}},{"base_weights":[-2.007355E-2,-7.752177E-3,-2.1004234E-1,1.2295787E-1,-9.670043E-2,7.829187E-3,4.1150063E-1,-7.1310233E-3,-5.5590254E-1,1.725504E-1,-7.00447E-1,8.4742343E-1,5.399695E-2,7.6609063E-1,-3.704712E-2,-1.2263554E0,-1.3157897E-1,-1.7392587E-2,1.1540499E-1,-8.345936E-2,-1.6494228E-1,9.4114676E-2,2.0688127E-1,-1.10405594E-1,1.2419988E-1,1.992166E-1,8.343777E-2,1.40631385E-2,-7.749813E-2,-1.21350236E-1,-3.9274225E-1,1.5882216E-1,-1.2581816E-1],"categories":[],"categories_nodes":[],"categories_segments":[],"categories_sizes":[],"default_left":[0,0,0,0,0,0,0,0,0,0,0,0,0,0,0,0,0,0,0,0,0,0,0,0,0,0,0,0,0,0,0,0,0],"id":24,"left_children":[1,3,-1,5,7,9,11,13,15,17,19,21,23,25,27,29,31,-1,-1,-1,-1,-1,-1,-1,-1,-1,-1,-1,-1,-1,-1,-1,-1],"loss_changes":[1.1736121E1,1.1359806E1,0E0,1.3141055E1,2.3907877E1,3.3237007E1,1.7538092E1,1.1304876E1,2.682992E1,2.1703285E1,9.1397285E-1,2.107132E0,1.9364714E1,7.8295994E-1,1.584098E1,1.3786354E1,2.4248487E1,0E0,0E0,0E0,0E0,0E0,0E0,0E0,0E0,0E0,0E0,0E0,0E0,0E0,0E0,0E0,0E0],"parents":[2147483647,0,0,1,1,3,3,4,4,5,5,6,6,7,7,8,8,9,9,10,10,11,11,12,12,13,13,14,14,15,15,16,16],"right_children":[2,4,-1,6,8,10,12,14,16,18,20,22,24,26,28,30,32,-1,-1,-1,-1,-1,-1,-1,-1,-1,-1,-1,-1,-1,-1,-1,-1],"split_conditions":[1.6791672E0,-7.899518E-1,-2.1004234E-1,1.5570405E-1,7.8248096E-1,1.0316601E0,1.3162748E0,-2.5289348E-1,2.5348994E-1,-9.0520285E-2,1.0675254E0,2.0073761E-1,5.9198046E-1,-2.9913092E-1,-3.4215072E-1,-7.4848676E-1,5.431945E-1,-1.7392587E-2,1.1540499E-1,-8.345936E-2,-1.6494228E-1,9.4114676E-2,2.0688127E-1,-1.10405594E-1,1.2419988E-1,1.992166E-1,8.343777E-2,1.40631385E-2,-7.749813E-2,-1.21350236E-1,-3.9274225E-1,1.5882216E-1,-1.2581816E-1],"split_indices":[0,2,0,1,0,0,0,1,1,1,0,1,1,1,2,2,1,0,0,0,0,0,0,0,0,0,0,0,0,0,0,0,0],"split_type":[0,0,0,0,0,0,0,0,0,0,0,0,0,0,0,0,0,0,0,0,0,0,0,0,0,0,0,0,0,0,0,0,0],"sum_hessian":[9.864837E2,9.7504474E2,1.14389925E1,3.94679E2,5.803657E2,2.8284915E2,1.1182981E2,4.8648938E2,9.387637E1,2.3009354E2,5.275563E1,4.9771023E1,6.2058784E1,1.7204632E1,4.6928473E2,3.5652874E1,5.82235E1,1.3668388E2,9.340965E1,1.1329046E1,4.1426582E1,1.2642537E1,3.7128487E1,2.9818611E1,3.2240177E1,1.08391285E1,6.3655033E0,3.5733374E2,1.1195099E2,1.8180704E1,1.7472172E1,1.9784054E1,3.843944E1],"tree_param":{"num_deleted":"0","num_feature":"3","num_nodes":"33","size_leaf_vector":"1"}},{"base_weights":[-1.7530976E-2,-4.0579196E-3,-6.24117E-1,4.9011137E-2,-1.7288315E-1,-2.3879932E-1,5.1767554E-2,8.0521035E-1,-7.618061E-3,5.825882E-2,-8.298112E-1,4.8211715E-1,3.4499606E-1,-1.2195329E-1,3.5020807E-1,5.4926175E-1,-1.6619036E-1,-1.1716145E0,-6.286032E-2,2.3572582E-1,1.5429616E-2,-1.2891983E-2,-2.5488865E-1,1.382847E-1,-8.6373575E-3,6.5388285E-2,3.3471647E-1,2.6817018E-2,-1.6517115E-1,-2.828556E-1,-1.7333265E-1,1.2544991E-1,-2.4996455E-1],"categories":[],"categories_nodes":[],"categories_segments":[],"categories_sizes":[],"default_left":[0,0,0,0,0,0,0,0,0,0,0,0,0,0,0,0,0,0,0,0,0,0,0,0,0,0,0,0,0,0,0,0,0],"id":25,"left_children":[1,3,5,7,9,-1,-1,11,13,15,17,19,-1,21,23,25,27,29,31,-1,-1,-1,-1,-1,-1,-1,-1,-1,-1,-1,-1,-1,-1],"loss_changes":[7.9590406E0,8.555927E0,9.372432E0,3.1122717E1,3.4727627E1,0E0,0E0,1.2521721E1,2.7740215E1,1.8812824E1,1.552647E1,9.543024E0,0E0,3.3843582E1,1.91743E1,1.277095E1,2.0951328E1,1.2088394E0,1.4713108E1,0E0,0E0,0E0,0E0,0E0,0E0,0E0,0E0,0E0,0E0,0E0,0E0,0E0,0E0],"parents":[2147483647,0,0,1,1,2,2,3,3,4,4,7,7,8,8,9,9,10,10,11,11,13,13,14,14,15,15,16,16,17,17,18,18],"right_children":[2,4,6,8,10,-1,-1,12,14,16,18,20,-1,22,24,26,28,30,32,-1,-1,-1,-1,-1,-1,-1,-1,-1,-1,-1,-1,-1,-1],"split_conditions":[1.5874841E0,-5.109131E-1,7.3362535E-1,5.202564E-1,4.1091368E-1,-2.3879932E-1,5.1767554E-2,2.0588046E-2,1.9454241E-1,-3.4215072E-1,3.5041928E-1,4.2465988E-1,3.4499606E-1,-6.0899985E-1,1.233827E0,1.6908036E-1,1.1530812E-1,2.4240488E-1,7.7341115E-1,2.3572582E-1,1.5429616E-2,-1.2891983E-2,-2.5488865E-1,1.382847E-1,-8.6373575E-3,6.5388285E-2,3.3471647E-1,2.6817018E-2,-1.6517115E-1,-2.828556E-1,-1.7333265E-1,1.2544991E-1,-2.4996455E-1],"split_indices":[0,2,1,0,0,0,0,1,1,2,1,0,0,2,0,1,0,1,0,0,0,0,0,0,0,0,0,0,0,0,0,0,0],"split_type":[0,0,0,0,0,0,0,0,0,0,0,0,0,0,0,0,0,0,0,0,0,0,0,0,0,0,0,0,0,0,0,0,0],"sum_hessian":[9.7318243E2,9.530213E2,2.0161139E1,7.256332E2,2.273881E2,1.2637893E1,7.523246E0,4.9633404E1,6.7599976E2,1.688789E2,5.85092E1,3.6659523E1,1.2973884E1,5.12804E2,1.6319574E2,5.2526115E1,1.163528E2,4.0107197E1,1.8402006E1,1.3862187E1,2.2797335E1,4.8603043E2,2.6773603E1,9.2147026E1,7.104871E1,4.349326E1,9.032855E0,7.916542E1,3.7187378E1,2.6105217E1,1.400198E1,1.1891829E1,6.5101776E0],"tree_param":{"num_deleted":"0","num_feature":"3","num_nodes":"33","size_leaf_vector":"1"}},{"base_weights":[4.911365E-3,5.351787E-1,-1.276837E-2,2.2021586E-1,8.274632E-2,6.1366353E-2,-2.022696E-1,-2.5321063E-1,2.0254435E-1,2.1682848E-1,-5.217257E-2,-2.3979156E-1,2.2112589E-1,-3.22656E-1,3.4862542E-1,8.4919825E-2,-3.8859686E-1,-1.6403219E-1,-9.186202E-1,-9.9715374E-2,6.9528624E-2,1.9313234E-1,3.430865E-2,1.1485638E-1,-1.1637312E-2,-1.4702308E-1,1.2559909E-1,-9.385339E-2,2.1085488E-2,-2.4097268E-1,-9.881825E-2],"categories":[],"categories_nodes":[],"categories_segments":[],"categories_sizes":[],"default_left":[0,0,0,0,0,0,0,0,0,0,0,0,0,0,0,0,0,0,0,0,0,0,0,0,0,0,0,0,0,0,0],"id":26,"left_children":[1,3,5,-1,7,9,11,-1,-1,13,15,17,-1,19,21,23,25,27,29,-1,-1,-1,-1,-1,-1,-1,-1,-1,-1,-1,-1],"loss_changes":[8.834945E0,6.7629757E0,1.2828409E1,0E0,1.9880566E1,1.1599174E1,1.2190651E1,0E0,0E0,1.9828217E1,1.7568853E1,1.2707744E1,0E0,5.32639E0,2.3215025E1,1.7185253E1,3.2863068E1,1.6468252E1,1.8739796E0,0E0,0E0,0E0,0E0,0E0,0E0,0E0,0E0,0E0,0E0,0E0,0E0],"parents":[2147483647,0,0,1,1,2,2,4,4,5,5,6,6,9,9,10,10,11,11,13,13,14,14,15,15,16,16,17,17,18,18],"right_children":[2,4,6,-1,8,10,12,-1,-1,14,16,18,-1,20,22,24,26,28,30,-1,-1,-1,-1,-1,-1,-1,-1,-1,-1,-1,-1],"split_conditions":[-1.030351E0,1.2059796E0,8.8428074E-1,2.2021586E-1,5.5996932E-2,-6.967081E-1,8.303184E-1,-2.5321063E-1,2.0254435E-1,-2.2477071E-1,5.857311E-1,-7.1952343E-1,2.2112589E-1,7.7796715E-1,-8.4056515E-1,-5.333015E-1,2.8633302E-1,1.6908036E-1,7.057082E-1,-9.9715374E-2,6.9528624E-2,1.9313234E-1,3.430865E-2,1.1485638E-1,-1.1637312E-2,-1.4702308E-1,1.2559909E-1,-9.385339E-2,2.1085488E-2,-2.4097268E-1,-9.881825E-2],"split_indices":[2,0,0,0,1,2,1,0,0,1,0,2,0,0,2,2,1,1,1,0,0,0,0,0,0,0,0,0,0,0,0],"split_type":[0,0,0,0,0,0,0,0,0,0,0,0,0,0,0,0,0,0,0,0,0,0,0,0,0,0,0,0,0,0,0],"sum_hessian":[9.406666E2,2.9406557E1,9.112601E2,1.339005E1,1.6016508E1,6.554988E2,2.5576132E2,6.348183E0,9.668324E0,2.762864E2,3.7921234E2,2.490295E2,6.7318177E0,5.3960747E1,2.2232567E2,2.6995404E2,1.0925829E2,2.2514435E2,2.388516E1,4.432691E1,9.633838E0,5.5045486E1,1.6728018E2,6.279752E1,2.0715654E2,8.376169E1,2.5496607E1,1.094709E2,1.1567344E2,1.5287938E1,8.597223E0],"tree_param":{"num_deleted":"0","num_feature":"3","num_nodes":"31","size_leaf_vector":"1"}},{"base_weights":[2.9966228E-2,1.3716683E-1,-3.585978E-2,4.2168367E-1,-4.51712E-2,1.2105117E-1,-2.2620028E-1,1.0818601E0,2.7397686E-1,1.6455217E-1,-4.387033E-1,3.7237543E-1,2.3708137E-2,-8.030777E-1,-7.4011266E-2,1.2958905E-1,2.647173E-1,2.814811E-4,7.540771E-1,9.49757E-1,-2.444478E-2,-6.854231E-1,1.7930111E-1,-2.4710022E-2,9.5530254E-1,-3.6148295E-1,1.9350173E-1,-5.124629E-1,-3.9981252E-1,1.0904956E-1,-5.048394E-1,1.6376E-1,-1.269455E-1,2.9181075E-1,8.583827E-2,3.64469E-2,2.4714494E-1,4.515633E-2,-1.1738162E-1,-2.6867402E-1,-8.883835E-2,-4.7141746E-2,1.5094547E-1,2.1509503E-1,1.3056675E-1,-2.192562E-2,-4.236272E-1,2.4824212E-1,7.7970205E-3,-1.915411E-1,7.0301057E-3,1.5250316E-1,-4.673906E-2,-2.2586726E-1,2.7246554E-3],"categories":[],"categories_nodes":[],"categories_segments":[],"categories_sizes":[],"default_left":[0,0,0,0,0,0,0,0,0,0,0,0,0,0,0,0,0,0,0,0,0,0,0,0,0,0,0,0,0,0,0,0,0,0,0,0,0,0,0,0,0,0,0,0,0,0,0,0,0,0,0,0,0,0,0],"id":27,"left_children":[1,3,5,7,9,11,13,15,17,19,21,23,25,27,29,-1,-1,31,33,35,37,39,-1,41,43,45,47,49,-1,51,53,-1,-1,-1,-1,-1,-1,-1,-1,-1,-1,-1,-1,-1,-1,-1,-1,-1,-1,-1,-1,-1,-1,-1,-1],"loss_changes":[6.5650215E0,1.8377674E1,1.7253286E1,1.3190578E1,1.7946245E1,7.7414603E0,2.2852097E1,1.135828E0,1.5027068E1,2.1097002E1,2.4435385E1,2.048035E1,1.5074598E1,1.59846E1,1.6427505E1,0E0,0E0,3.4237167E1,8.419565E0,4.302046E0,1.4466662E1,9.345627E0,0E0,7.8632045E0,4.1431427E-2,2.94536E1,2.4318521E1,9.327001E0,0E0,2.9320253E1,1.7837687E1,0E0,0E0,0E0,0E0,0E0,0E0,0E0,0E0,0E0,0E0,0E0,0E0,0E0,0E0,0E0,0E0,0E0,0E0,0E0,0E0,0E0,0E0,0E0,0E0],"parents":[2147483647,0,0,1,1,2,2,3,3,4,4,5,5,6,6,7,7,8,8,9,9,10,10,11,11,12,12,13,13,14,14,17,17,18,18,19,19,20,20,21,21,23,23,24,24,25,25,26,26,27,27,29,29,30,30],"right_children":[2,4,6,8,10,12,14,16,18,20,22,24,26,28,30,-1,-1,32,34,36,38,40,-1,42,44,46,48,50,-1,52,54,-1,-1,-1,-1,-1,-1,-1,-1,-1,-1,-1,-1,-1,-1,-1,-1,-1,-1,-1,-1,-1,-1,-1,-1],"split_conditions":[6.5091103E-1,-5.333015E-1,-8.3197904E-1,4.964158E-1,3.402129E-1,8.6420506E-1,-3.2574516E-2,-1.6471119E-1,3.71548E-2,-3.70259E-1,3.4319362E-1,-1.7267309E-1,6.733142E-4,-7.5835186E-1,-6.7848027E-1,1.2958905E-1,2.647173E-1,-6.967081E-1,-6.383282E-1,-1.2367349E-1,1.1530812E-1,5.5996932E-2,1.7930111E-1,7.918229E-1,8.3943594E-1,-8.883974E-1,9.9213743E-1,-1.02426074E-1,-3.9981252E-1,7.7796715E-1,2.9333034E-1,1.6376E-1,-1.269455E-1,2.9181075E-1,8.583827E-2,3.64469E-2,2.4714494E-1,4.515633E-2,-1.1738162E-1,-2.6867402E-1,-8.883835E-2,-4.7141746E-2,1.5094547E-1,2.1509503E-1,1.3056675E-1,-2.192562E-2,-4.236272E-1,2.4824212E-1,7.7970205E-3,-1.915411E-1,7.0301057E-3,1.5250316E-1,-4.673906E-2,-2.2586726E-1,2.7246554E-3],"split_indices":[0,2,2,0,0,0,1,1,1,2,1,1,1,2,2,0,0,2,2,1,0,1,0,0,0,2,0,1,0,0,1,0,0,0,0,0,0,0,0,0,0,0,0,0,0,0,0,0,0,0,0,0,0,0,0],"split_type":[0,0,0,0,0,0,0,0,0,0,0,0,0,0,0,0,0,0,0,0,0,0,0,0,0,0,0,0,0,0,0,0,0,0,0,0,0,0,0,0,0,0,0,0,0,0,0,0,0,0,0,0,0,0,0],"sum_hessian":[9.286424E2,3.5287912E2,5.7576324E2,1.3731021E2,2.1556891E2,3.1579526E2,2.5996802E2,2.3948387E1,1.13361824E2,1.4100537E2,7.456354E1,8.737681E1,2.2841846E2,5.3374268E1,2.0659375E2,7.2520175E0,1.669637E1,7.28386E1,4.052322E1,2.65744E1,1.1443098E2,6.290157E1,1.1661966E1,5.254272E1,3.4834087E1,6.953759E1,1.5888086E2,4.3156685E1,1.0217585E1,1.4551195E2,6.1081802E1,3.1695818E1,4.1142784E1,1.3686197E1,2.6837025E1,6.019602E0,2.0554798E1,7.938323E1,3.504774E1,1.8859867E1,4.4041702E1,4.1986237E1,1.0556481E1,2.8438684E1,6.395403E0,6.0910492E1,8.627101E0,2.1212337E1,1.3766852E2,2.4892302E1,1.8264383E1,5.0698788E1,9.4813156E1,2.8980352E1,3.2101448E1],"tree_param":{"num_deleted":"0","num_feature":"3","num_nodes":"55","size_leaf_vector":"1"}},{"base_weights":[1.766744E-2,1.8088737E-1,-4.6893608E-2,1.5222594E-1,1.965591E-1,1.9566159E-1,-6.0942937E-2,3.797109E-1,6.578821E-2,-2.7587723E-2,-6.061179E-1,1.5528266E-2,7.880812E-1,-3.9896566E-1,1.8528591E-1,6.534822E-1,-8.618086E-2,-3.348799E-1,-2.3140463E-1,-4.8830166E-2,1.9531533E-1,1.9783731E-1,4.2821832E-2,-1.465767E-1,7.47296E-2,1.9981243E-1,5.846858E-3,1.9376205E-1,9.188368E-3,-3.472088E-3,-1.3870475E-1,1.5170477E-1,-1.6900367E-1],"categories":[],"categories_nodes":[],"categories_segments":[],"categories_sizes":[],"default_left":[0,0,0,0,0,0,0,0,0,0,0,0,0,0,0,0,0,0,0,0,0,0,0,0,0,0,0,0,0,0,0,0,0],"id":28,"left_children":[1,3,5,7,-1,-1,9,11,13,15,17,19,21,23,25,27,29,31,-1,-1,-1,-1,-1,-1,-1,-1,-1,-1,-1,-1,-1,-1,-1],"loss_changes":[9.629787E0,5.3612175E0,8.934149E0,4.901622E0,0E0,0E0,1.17410145E1,1.0216547E1,1.0224427E1,2.4413015E1,4.47735E0,8.443346E0,2.476244E0,8.395785E0,1.731443E1,7.517006E0,2.2196558E1,1.2650772E1,0E0,0E0,0E0,0E0,0E0,0E0,0E0,0E0,0E0,0E0,0E0,0E0,0E0,0E0,0E0],"parents":[2147483647,0,0,1,1,2,2,3,3,6,6,7,7,8,8,9,9,10,10,11,11,12,12,13,13,14,14,15,15,16,16,17,17],"right_children":[2,4,6,8,-1,-1,10,12,14,16,18,20,22,24,26,28,30,32,-1,-1,-1,-1,-1,-1,-1,-1,-1,-1,-1,-1,-1,-1,-1],"split_conditions":[-8.614999E-1,7.499845E-1,-2.9913092E-1,8.8428074E-1,1.965591E-1,1.9566159E-1,-8.04921E-2,-2.2477071E-1,9.4017696E-1,1.601009E-1,-2.0396309E-1,7.963568E-1,8.6420506E-1,-8.1043296E-2,1.0316601E0,-1.7299217E-1,-4.2516342E-1,1.1647776E-1,-2.3140463E-1,-4.8830166E-2,1.9531533E-1,1.9783731E-1,4.2821832E-2,-1.465767E-1,7.47296E-2,1.9981243E-1,5.846858E-3,1.9376205E-1,9.188368E-3,-3.472088E-3,-1.3870475E-1,1.5170477E-1,-1.6900367E-1],"split_indices":[2,1,1,0,0,0,2,1,0,0,0,0,0,1,0,2,2,2,0,0,0,0,0,0,0,0,0,0,0,0,0,0,0],"split_type":[0,0,0,0,0,0,0,0,0,0,0,0,0,0,0,0,0,0,0,0,0,0,0,0,0,0,0,0,0,0,0,0,0],"sum_hessian":[9.120409E2,2.579934E2,6.540475E2,2.4954826E2,8.445153E0,8.4649515E0,6.455825E2,6.777819E1,1.8177007E2,6.0935144E2,3.623109E1,3.637615E1,3.1402044E1,3.6699326E1,1.4507074E2,4.7466103E1,5.618853E2,2.42234E1,1.2007693E1,2.9193972E1,7.1821756E0,2.4889957E1,6.5120873E0,2.655633E1,1.0142995E1,2.4312843E1,1.20757904E2,3.311814E1,1.43479595E1,5.0089175E2,6.0993576E1,7.2041755E0,1.7019224E1],"tree_param":{"num_deleted":"0","num_feature":"3","num_nodes":"33","size_leaf_vector":"1"}},{"base_weights":[-1.5601817E-3,-1.8052831E-1,5.412958E-2,1.5077522E-1,-3.109376E-1,1.7559344E-1,-1.0090396E-1,7.6602626E-1,-7.18545E-2,1.8117927E-1,-3.8954425E-1,7.3468894E-1,7.032521E-2,1.3901614E-1,-3.945456E-1,2.1580334E-1,6.600628E-2,5.8693547E-2,-1.435556E-1,-2.4436755E-1,-7.2005194E-1,5.2762437E-1,2.4492756E-1,1.2820464E-1,-5.078622E-1,5.504229E-1,1.5312842E-2,-1.8053585E0,-2.0742942E-1,-3.3855684E-2,1.0796354E-1,1.846587E-1,-8.216432E-2,-8.206957E-2,-4.1893995E-1,1.7697394E-1,-4.453608E-2,4.1546404E-2,-1.04780026E-1,-2.9291955E-1,1.2622994E-1,1.2113196E-2,1.7539982E-1,-1.0351916E-1,6.5331385E-2,-2.1276571E-1,-5.675932E-1,3.0207433E-2,-1.1579398E-1],"categories":[],"categories_nodes":[],"categories_segments":[],"categories_sizes":[],"default_left":[0,0,0,0,0,0,0,0,0,0,0,0,0,0,0,0,0,0,0,0,0,0,0,0,0,0,0,0,0,0,0,0,0,0,0,0,0,0,0,0,0,0,0,0,0,0,0,0,0],"id":29,"left_children":[1,3,5,7,9,11,13,15,17,-1,19,21,23,25,27,-1,-1,29,-1,31,33,35,-1,37,39,41,43,45,47,-1,-1,-1,-1,-1,-1,-1,-1,-1,-1,-1,-1,-1,-1,-1,-1,-1,-1,-1,-1],"loss_changes":[8.964732E0,9.269558E0,1.293625E1,8.405658E0,1.4337446E1,2.2608871E1,2.1331093E1,1.5169449E0,3.6268392E0,0E0,6.754959E0,4.6173897E0,1.0945378E1,8.487762E0,3.5542995E1,0E0,0E0,3.8254192E0,0E0,1.6292747E1,1.7421951E1,9.6330805E0,0E0,1.2341623E1,2.9193512E1,5.1375647E0,1.9017124E1,8.27755E0,1.4290181E1,0E0,0E0,0E0,0E0,0E0,0E0,0E0,0E0,0E0,0E0,0E0,0E0,0E0,0E0,0E0,0E0,0E0,0E0,0E0,0E0],"parents":[2147483647,0,0,1,1,2,2,3,3,4,4,5,5,6,6,7,7,8,8,10,10,11,11,12,12,13,13,14,14,17,17,19,19,20,20,21,21,23,23,24,24,25,25,26,26,27,27,28,28],"right_children":[2,4,6,8,10,12,14,16,18,-1,20,22,24,26,28,-1,-1,30,-1,32,34,36,-1,38,40,42,44,46,48,-1,-1,-1,-1,-1,-1,-1,-1,-1,-1,-1,-1,-1,-1,-1,-1,-1,-1,-1,-1],"split_conditions":[-9.0520285E-2,-2.3283216E-1,8.01275E-1,5.933706E-1,-9.9038017E-1,-7.245739E-1,-8.561905E-1,2.2108752E-1,-8.614999E-1,1.8117927E-1,-6.8825376E-1,2.359526E-2,7.1812373E-1,1.0316601E0,3.359351E-2,2.1580334E-1,6.600628E-2,-2.7916586E-1,-1.435556E-1,6.2646335E-1,4.964158E-1,-7.553815E-1,2.4492756E-1,-1.2503274E-1,1.8184352E-1,-3.2574516E-2,1.4397246E-1,-8.1216437E-1,9.5846236E-1,-3.3855684E-2,1.0796354E-1,1.846587E-1,-8.216432E-2,-8.206957E-2,-4.1893995E-1,1.7697394E-1,-4.453608E-2,4.1546404E-2,-1.04780026E-1,-2.9291955E-1,1.2622994E-1,1.2113196E-2,1.7539982E-1,-1.0351916E-1,6.5331385E-2,-2.1276571E-1,-5.675932E-1,3.0207433E-2,-1.1579398E-1],"split_indices":[1,1,0,0,2,2,2,2,2,0,2,1,0,0,1,0,0,1,0,0,0,2,0,2,1,1,1,2,0,0,0,0,0,0,0,0,0,0,0,0,0,0,0,0,0,0,0,0,0],"split_type":[0,0,0,0,0,0,0,0,0,0,0,0,0,0,0,0,0,0,0,0,0,0,0,0,0,0,0,0,0,0,0,0,0,0,0,0,0,0,0,0,0,0,0,0,0,0,0,0,0],"sum_hessian":[8.9748865E2,2.1246286E2,6.8502576E2,5.996534E1,1.5249753E2,3.8402316E2,3.010026E2,1.5284599E1,4.468074E1,9.049373E0,1.4344815E2,5.990095E1,3.2412222E2,1.6594429E2,1.350583E2,9.13654E0,6.1480584E0,3.745467E1,7.2260704E0,1.0087695E2,4.2571198E1,4.1453083E1,1.8447866E1,2.953359E2,2.878633E1,3.7564487E1,1.2837979E2,1.4802505E1,1.202558E2,2.5643122E1,1.1811549E1,1.0788994E1,9.008796E1,3.4575714E1,7.9954844E0,2.9293617E1,1.2159468E1,2.6726303E2,2.8072859E1,1.5965369E1,1.282096E1,1.3786579E1,2.3777908E1,4.6945026E1,8.143478E1,8.737398E0,6.0651064E0,5.9236015E1,6.101978E1],"tree_param":{"num_deleted":"0","num_feature":"3","num_nodes":"49","size_leaf_vector":"1"}},{"base_weights":[-3.94821E-3,-1.6938676E-1,5.0201643E-2,1.14748366E-1,-2.1266307E-1,6.468834E-2,-1.9307238E-1,6.2224694E-2,-3.6825806E-1,1.7294852E-1,-5.6157913E-2,3.6708617E-1,-2.5814718E-1,-2.1816006E-1,-5.472647E-1,4.733539E-1,3.0235985E-2,5.574566E-2,-4.7144392E-1,-3.5674077E-2,1.7567721E-1,-1.1928897E-1,8.4504776E-2,1.09947145E-1,-9.609417E-2,-8.810647E-2,-3.139033E-1,2.552865E-1,6.9209784E-2,4.2297114E-2,-9.7073905E-2,-4.4209544E-2,3.799777E-2,-2.9101345E-1,-1.1588914E-2],"categories":[],"categories_nodes":[],"categories_segments":[],"categories_sizes":[],"default_left":[0,0,0,0,0,0,0,0,0,0,0,0,0,0,0,0,0,0,0,0,0,0,0,0,0,0,0,0,0,0,0,0,0,0,0],"id":30,"left_children":[1,3,5,-1,7,9,-1,11,13,15,17,19,21,23,25,27,29,31,33,-1,-1,-1,-1,-1,-1,-1,-1,-1,-1,-1,-1,-1,-1,-1,-1],"loss_changes":[7.994105E0,6.853288E0,9.369008E0,0E0,8.92279E0,8.686931E0,0E0,7.523954E0,3.4545631E0,1.4994575E1,1.4626053E1,9.757717E0,7.655013E0,1.2867116E1,6.828884E0,1.1745279E1,1.9559517E1,8.042424E0,2.4820732E1,0E0,0E0,0E0,0E0,0E0,0E0,0E0,0E0,0E0,0E0,0E0,0E0,0E0,0E0,0E0,0E0],"parents":[2147483647,0,0,1,1,2,2,4,4,5,5,7,7,8,8,9,9,10,10,11,11,12,12,13,13,14,14,15,15,16,16,17,17,18,18],"right_children":[2,4,6,-1,8,10,-1,12,14,16,18,20,22,24,26,28,30,32,34,-1,-1,-1,-1,-1,-1,-1,-1,-1,-1,-1,-1,-1,-1,-1,-1],"split_conditions":[-8.614757E-2,-2.668174E-1,1.4811605E-1,1.14748366E-1,-8.883974E-1,7.8248096E-1,-1.9307238E-1,8.7792134E-1,6.6351825E-1,-6.5100414E-1,-7.5835186E-1,-2.897942E-1,9.32209E-1,-7.520062E-1,-7.7612543E-1,6.2646335E-1,5.7449895E-1,5.986343E-2,2.294634E-1,-3.5674077E-2,1.7567721E-1,-1.1928897E-1,8.4504776E-2,1.09947145E-1,-9.609417E-2,-8.810647E-2,-3.139033E-1,2.552865E-1,6.9209784E-2,4.2297114E-2,-9.7073905E-2,-4.4209544E-2,3.799777E-2,-2.9101345E-1,-1.1588914E-2],"split_indices":[1,0,2,0,2,0,0,0,0,2,2,1,0,2,2,0,0,1,1,0,0,0,0,0,0,0,0,0,0,0,0,0,0,0,0],"split_type":[0,0,0,0,0,0,0,0,0,0,0,0,0,0,0,0,0,0,0,0,0,0,0,0,0,0,0,0,0,0,0,0,0,0,0],"sum_hessian":[8.904021E2,2.1904576E2,6.713564E2,1.196451E1,2.0708124E2,6.6225195E2,9.104403E0,7.5064964E1,1.3201628E2,3.490891E2,3.1316284E2,3.838885E1,3.6676113E1,7.301312E1,5.9003155E1,1.1168304E2,2.3740608E2,2.4737152E2,6.579133E1,1.7987297E1,2.0401554E1,2.5211376E1,1.1464737E1,1.72786E1,5.5734524E1,5.280379E1,6.1993637E0,1.782499E1,9.385805E1,1.7677576E2,6.0630318E1,7.835949E1,1.6901202E2,2.0211826E1,4.5579502E1],"tree_param":{"num_deleted":"0","num_feature":"3","num_nodes":"35","size_leaf_vector":"1"}},{"base_weights":[1.8755633E-3,3.5247218E-2,-3.74044E-1,-4.079456E-2,2.8363147E-1,9.03107E-2,-1.0895064E0,4.0439166E-2,-2.874591E-1,5.578094E-1,-1.9455747E-1,3.826743E-1,-1.6730338E-1,-6.133619E-1,-3.022033E-1,2.7070782E-1,-6.7040406E-2,-1.4184926E-1,-4.000794E-1,7.092204E-1,1.3190994E-1,1.6852409E-1,-7.9657364E-1,-1.0676095E-1,2.0094372E-1,1.4387988E-1,-4.10342E-1,2.7358988E-2,1.7673513E-1,4.3094936E-3,-1.72679E-1,2.308116E-2,-1.0136817E-1,3.3320244E-2,1.8008773E-1,1.1938868E-1,-3.6222383E-2,1.4620277E-1,-1.04608156E-1,-2.522035E-1,-6.281742E-2],"categories":[],"categories_nodes":[],"categories_segments":[],"categories_sizes":[],"default_left":[0,0,0,0,0,0,0,0,0,0,0,0,0,0,0,0,0,0,0,0,0,0,0,0,0,0,0,0,0,0,0,0,0,0,0,0,0,0,0,0,0],"id":31,"left_children":[1,3,5,7,9,11,13,15,17,19,21,23,-1,-1,25,27,29,31,-1,33,35,37,39,-1,-1,-1,-1,-1,-1,-1,-1,-1,-1,-1,-1,-1,-1,-1,-1,-1,-1],"loss_changes":[1.0959905E1,1.5166195E1,2.3764061E1,1.2338073E1,2.4781845E1,1.1588495E1,3.869744E1,1.1492949E1,3.5029858E1,7.6362457E0,1.5286615E1,1.7164282E1,0E0,0E0,3.4015587E1,1.1637523E1,2.0560612E1,1.1802153E1,0E0,6.4781914E0,4.3162127E0,1.5363934E1,4.7440224E0,0E0,0E0,0E0,0E0,0E0,0E0,0E0,0E0,0E0,0E0,0E0,0E0,0E0,0E0,0E0,0E0,0E0,0E0],"parents":[2147483647,0,0,1,1,2,2,3,3,4,4,5,5,6,6,7,7,8,8,9,9,10,10,11,11,14,14,15,15,16,16,17,17,19,19,20,20,21,21,22,22],"right_children":[2,4,6,8,10,12,14,16,18,20,22,24,-1,-1,26,28,30,32,-1,34,36,38,40,-1,-1,-1,-1,-1,-1,-1,-1,-1,-1,-1,-1,-1,-1,-1,-1,-1,-1],"split_conditions":[1.3162748E0,1.8184352E-1,-9.143895E-1,8.5106766E-1,-4.8850572E-1,1.6791672E0,6.045027E-1,-7.5835186E-1,-8.089548E-1,5.431945E-1,4.704269E-1,4.6088222E-1,-1.6730338E-1,-6.133619E-1,1.495686E0,-3.2574516E-2,7.233871E-1,-9.2847484E-1,-4.000794E-1,2.1210656E-1,1.0874273E0,-2.4400438E-1,3.8315132E-1,-1.0676095E-1,2.0094372E-1,1.4387988E-1,-4.10342E-1,2.7358988E-2,1.7673513E-1,4.3094936E-3,-1.72679E-1,2.308116E-2,-1.0136817E-1,3.3320244E-2,1.8008773E-1,1.1938868E-1,-3.6222383E-2,1.4620277E-1,-1.04608156E-1,-2.522035E-1,-6.281742E-2],"split_indices":[0,1,2,0,2,0,1,2,2,1,0,1,0,0,0,1,0,2,0,1,0,2,1,0,0,0,0,0,0,0,0,0,0,0,0,0,0,0,0,0,0],"split_type":[0,0,0,0,0,0,0,0,0,0,0,0,0,0,0,0,0,0,0,0,0,0,0,0,0,0,0,0,0,0,0,0,0,0,0,0,0,0,0,0,0],"sum_hessian":[8.715923E2,8.0135913E2,7.023313E1,6.1416956E2,1.871896E2,4.312051E1,2.711262E1,4.6264374E2,1.5152582E2,1.1886805E2,6.8321556E1,3.2743835E1,1.0376677E1,7.4781046E0,1.9634516E1,1.4674103E2,3.159027E2,1.3980582E2,1.1719996E1,8.720181E1,3.1666243E1,4.306732E1,2.5254236E1,1.2742938E1,2.0000896E1,1.2619437E1,7.015078E0,1.1790554E2,2.883549E1,2.835723E2,3.2330406E1,8.029157E1,5.9514248E1,1.7591946E1,6.960986E1,1.2739837E1,1.8926405E1,2.4108877E1,1.8958445E1,1.3501136E1,1.17531E1],"tree_param":{"num_deleted":"0","num_feature":"3","num_nodes":"41","size_leaf_vector":"1"}},{"base_weights":[6.502589E-3,1.3662106E-1,-5.4670956E-2,1.9375356E-1,-6.0620356E-1,-3.8868852E-2,-2.3101777E-1,1.409101E-1,1.8526445E-1,-3.7368261E-3,-3.2465783E-1,-2.5216222E-1,4.068311E-2,1.9602503E-1,-5.218748E-1,3.8114697E-1,-4.4810015E-1,2.1918394E-1,-1.0614708E-1,2.016397E-2,1.5611261E-1,4.3867793E-2,-3.606419E-1,2.2640443E-1,2.1883301E-2,-1.2706386E-2,-1.4104837E-1,2.4301425E-1,2.311854E-2,1.9646032E-2,-1.2297833E-1],"categories":[],"categories_nodes":[],"categories_segments":[],"categories_sizes":[],"default_left":[0,0,0,0,0,0,0,0,0,0,0,0,0,0,0,0,0,0,0,0,0,0,0,0,0,0,0,0,0,0,0],"id":32,"left_children":[1,3,5,7,9,11,-1,13,-1,-1,-1,15,17,19,21,23,25,27,29,-1,-1,-1,-1,-1,-1,-1,-1,-1,-1,-1,-1],"loss_changes":[6.954446E0,1.1974432E1,9.622534E0,9.1623745E0,1.0871902E1,9.960553E0,0E0,8.960693E0,0E0,0E0,0E0,1.9955658E1,1.12402725E1,1.2149352E1,1.6428322E1,7.137143E0,1.0100241E1,1.9604609E1,2.2035704E1,0E0,0E0,0E0,0E0,0E0,0E0,0E0,0E0,0E0,0E0,0E0,0E0],"parents":[2147483647,0,0,1,1,2,2,3,3,4,4,5,5,7,7,11,11,12,12,13,13,14,14,15,15,16,16,17,17,18,18],"right_children":[2,4,6,8,10,12,-1,14,-1,-1,-1,16,18,20,22,24,26,28,30,-1,-1,-1,-1,-1,-1,-1,-1,-1,-1,-1,-1],"split_conditions":[-8.3772564E-1,1.5874841E0,1.3922645E0,5.59089E-1,-9.6985996E-1,-3.2574516E-2,-2.3101777E-1,1.3520736E0,1.8526445E-1,-3.7368261E-3,-3.2465783E-1,1.9760987E-1,-6.3123924E-1,1.3483705E-1,-9.470685E-1,-3.0449656E-1,-7.7291024E-1,6.2646335E-1,5.6485987E-1,2.016397E-2,1.5611261E-1,4.3867793E-2,-3.606419E-1,2.2640443E-1,2.1883301E-2,-1.2706386E-2,-1.4104837E-1,2.4301425E-1,2.311854E-2,1.9646032E-2,-1.2297833E-1],"split_indices":[2,0,0,1,2,1,0,0,0,0,0,0,2,1,2,2,2,0,0,0,0,0,0,0,0,0,0,0,0,0,0],"split_type":[0,0,0,0,0,0,0,0,0,0,0,0,0,0,0,0,0,0,0,0,0,0,0,0,0,0,0,0,0,0,0],"sum_hessian":[8.7175684E2,2.7838596E2,5.933709E2,2.5919016E2,1.9195793E1,5.854185E2,7.9523835E0,2.4150075E2,1.7689411E1,1.23099785E1,6.885815E0,1.5844058E2,4.2697794E2,2.2361032E2,1.789043E1,3.721365E1,1.2122693E2,1.9248364E2,2.344943E2,1.890306E2,3.457972E1,1.1537864E1,6.352568E0,9.985984E0,2.7227665E1,4.3451817E1,7.777511E1,1.9666729E1,1.7281691E2,1.6555481E2,6.893949E1],"tree_param":{"num_deleted":"0","num_feature":"3","num_nodes":"31","size_leaf_vector":"1"}},{"base_weights":[-5.756406E-3,3.6692586E-2,-2.0200816E-1,7.773094E-1,-8.505531E-3,7.6402776E-2,-6.6778153E-1,4.406545E-1,2.8793707E-1,-2.9194003E-2,1.8231791E-1,7.8210014E-1,-1.8796809E-1,-2.6816204E-1,-4.732392E-1,2.3870131E-1,7.912405E-2,3.4507792E-3,-4.2528188E-1,1.0167887E0,1.1507894E-2,9.568969E-2,-8.261902E-1,-3.6615737E-2,-8.7719816E-1,-7.672215E-2,8.0280565E-2,-1.4320866E-2,8.1021175E-2,9.6330345E-2,-1.9524269E-1,1.5608029E-1,2.5497597E-1,1.5270278E-1,-6.365803E-2,-2.6277065E-1,2.9492237E-2,2.6238942E-1,-1.3458039E-1,-2.1830128E-1,-1.1141976E-1],"categories":[],"categories_nodes":[],"categories_segments":[],"categories_sizes":[],"default_left":[0,0,0,0,0,0,0,0,0,0,0,0,0,0,0,0,0,0,0,0,0,0,0,0,0,0,0,0,0,0,0,0,0,0,0,0,0,0,0,0,0],"id":33,"left_children":[1,3,5,7,9,11,13,15,-1,17,-1,19,21,-1,23,-1,25,27,29,31,-1,33,35,37,39,-1,-1,-1,-1,-1,-1,-1,-1,-1,-1,-1,-1,-1,-1,-1,-1],"loss_changes":[7.164482E0,2.3679327E1,1.9882982E1,7.258274E0,1.19527025E1,1.8172348E1,5.9850235E0,6.5690784E0,0E0,8.44299E0,0E0,4.477644E0,1.2949321E1,0E0,7.853751E0,0E0,2.5870872E0,1.6094841E1,2.1807728E1,1.4497566E-1,0E0,1.247709E1,8.786317E0,1.7758299E1,6.714134E-1,0E0,0E0,0E0,0E0,0E0,0E0,0E0,0E0,0E0,0E0,0E0,0E0,0E0,0E0,0E0,0E0],"parents":[2147483647,0,0,1,1,2,2,3,3,4,4,5,5,6,6,7,7,9,9,11,11,12,12,14,14,16,16,17,17,18,18,19,19,21,21,22,22,23,23,24,24],"right_children":[2,4,6,8,10,12,14,16,-1,18,-1,20,22,-1,24,-1,26,28,30,32,-1,34,36,38,40,-1,-1,-1,-1,-1,-1,-1,-1,-1,-1,-1,-1,-1,-1,-1,-1],"split_conditions":[-4.4946027E-1,4.5503592E-1,2.4626994E-1,3.5260115E-3,7.663883E-1,-2.7296177E-1,9.331692E-2,2.993117E-1,2.8793707E-1,1.3719373E0,1.8231791E-1,1.9760987E-1,4.446968E-3,-2.6816204E-1,-3.70259E-1,2.3870131E-1,-1.5934984E-1,2.5348994E-1,-9.800063E-1,-5.0915625E-2,1.1507894E-2,-6.809878E-2,1.7514347E-1,4.1091368E-1,3.7711775E-1,-7.672215E-2,8.0280565E-2,-1.4320866E-2,8.1021175E-2,9.6330345E-2,-1.9524269E-1,1.5608029E-1,2.5497597E-1,1.5270278E-1,-6.365803E-2,-2.6277065E-1,2.9492237E-2,2.6238942E-1,-1.3458039E-1,-2.1830128E-1,-1.1141976E-1],"split_indices":[2,0,0,1,1,2,1,0,0,0,0,0,0,0,2,0,1,1,2,1,0,2,1,0,1,0,0,0,0,0,0,0,0,0,0,0,0,0,0,0,0],"split_type":[0,0,0,0,0,0,0,0,0,0,0,0,0,0,0,0,0,0,0,0,0,0,0,0,0,0,0,0,0,0,0,0,0,0,0,0,0,0,0,0,0],"sum_hessian":[8.581211E2,7.061869E2,1.5193425E2,3.968645E1,6.665004E2,9.56165E1,5.6317745E1,2.6118917E1,1.3567531E1,6.5185315E2,1.4647298E1,2.552448E1,7.009202E1,1.2607681E1,4.3710064E1,8.345879E0,1.7773039E1,6.031352E2,4.871793E1,1.900295E1,6.5215297E0,4.9113567E1,2.0978455E1,2.1529888E1,2.2180176E1,7.093691E0,1.0679349E1,5.0857938E2,9.455582E1,1.7502295E1,3.1215635E1,9.307834E0,9.695118E0,1.87636E1,3.0349966E1,1.4563779E1,6.4146757E0,6.5340686E0,1.499582E1,1.4349677E1,7.8304987E0],"tree_param":{"num_deleted":"0","num_feature":"3","num_nodes":"41","size_leaf_vector":"1"}},{"base_weights":[-2.0229027E-3,8.278137E-3,-2.3913547E-1,2.087162E-1,-2.7051939E-2,1.0525977E-1,5.711652E-1,-6.268492E-3,-8.4528553E-1,2.5300702E-1,-2.9160205E-1,1.717767E-1,4.288929E-2,-6.393999E-2,2.6771945E-1,-7.8819335E-2,-2.3042078E-1,1.962832E-2,2.0559436E-1,-3.3619625E-3,-9.8055206E-2,-4.5867166E-3,-1.6156864E-1,7.660257E-2,-1.7305084E-1],"categories":[],"categories_nodes":[],"categories_segments":[],"categories_sizes":[],"default_left":[0,0,0,0,0,0,0,0,0,0,0,0,0,0,0,0,0,0,0,0,0,0,0,0,0],"id":34,"left_children":[1,3,-1,5,7,9,11,13,15,17,19,-1,-1,21,23,-1,-1,-1,-1,-1,-1,-1,-1,-1,-1],"loss_changes":[9.798611E0,5.9680414E0,0E0,4.6752567E0,1.2182428E1,5.906132E0,2.252368E0,1.1077054E1,1.5884609E0,8.271063E0,1.2674649E0,0E0,0E0,1.7030807E1,1.2346938E1,0E0,0E0,0E0,0E0,0E0,0E0,0E0,0E0,0E0,0E0],"parents":[2147483647,0,0,1,1,3,3,4,4,5,5,6,6,7,7,8,8,9,9,10,10,13,13,14,14],"right_children":[2,4,-1,6,8,10,12,14,16,18,20,-1,-1,22,24,-1,-1,-1,-1,-1,-1,-1,-1,-1,-1],"split_conditions":[1.7408416E0,-9.394292E-1,-2.3913547E-1,-9.613142E-1,1.4424949E0,-9.800063E-1,-9.470685E-1,2.8633302E-1,-9.044483E-1,3.070384E-1,-4.2845976E-2,1.717767E-1,4.288929E-2,9.674429E-1,-1.7299217E-1,-7.8819335E-2,-2.3042078E-1,1.962832E-2,2.0559436E-1,-3.3619625E-3,-9.8055206E-2,-4.5867166E-3,-1.6156864E-1,7.660257E-2,-1.7305084E-1],"split_indices":[0,2,0,2,0,2,2,1,2,1,1,0,0,0,2,0,0,0,0,0,0,0,0,0,0],"split_type":[0,0,0,0,0,0,0,0,0,0,0,0,0,0,0,0,0,0,0,0,0,0,0,0,0],"sum_hessian":[8.477128E2,8.409688E2,6.7439914E0,1.2528455E2,7.1568427E2,9.8468414E1,2.6816137E1,6.989386E2,1.6745647E1,7.201902E1,2.64494E1,1.5689283E1,1.1126854E1,5.780351E2,1.209035E2,6.3985877E0,1.0347059E1,5.9653606E1,1.2365411E1,1.0439507E1,1.6009893E1,5.457048E2,3.2330353E1,1.12060455E2,8.84305E0],"tree_param":{"num_deleted":"0","num_feature":"3","num_nodes":"25","size_leaf_vector":"1"}},{"base_weights":[-1.2346904E-2,-3.7151692E-3,-2.113909E-1,5.6245696E-2,-1.522891E-1,7.232466E-1,2.3174516E-3,7.966328E-2,-4.4399846E-1,4.5159903E-1,2.6305586E-1,-1.7666888E-1,1.8288302E-1,6.354865E-1,-6.1943237E-2,-1.3698629E0,-2.965588E-1,1.7393753E-1,-6.9730086E-3,-1.9112159E-2,-2.5700977E-1,7.9446815E-2,-1.1382139E-2,-3.0614052E-3,2.0011635E-1,3.0617196E-2,-1.1930948E-1,-3.490461E-1,-1.8812369E-1,-1.1370375E-2,-1.4481167E-1],"categories":[],"categories_nodes":[],"categories_segments":[],"categories_sizes":[],"default_left":[0,0,0,0,0,0,0,0,0,0,0,0,0,0,0,0,0,0,0,0,0,0,0,0,0,0,0,0,0,0,0],"id":35,"left_children":[1,3,-1,5,7,9,11,13,15,17,-1,19,21,23,25,27,29,-1,-1,-1,-1,-1,-1,-1,-1,-1,-1,-1,-1,-1,-1],"loss_changes":[7.2470293E0,7.592572E0,0E0,2.1841589E1,1.661615E1,5.7442703E0,1.8222546E1,1.0850326E1,1.4431704E1,5.5365715E0,0E0,2.524458E1,1.2606026E1,5.5264797E0,1.1373421E1,4.655838E-1,8.81093E0,0E0,0E0,0E0,0E0,0E0,0E0,0E0,0E0,0E0,0E0,0E0,0E0,0E0,0E0],"parents":[2147483647,0,0,1,1,3,3,4,4,5,5,6,6,7,7,8,8,9,9,11,11,12,12,13,13,14,14,15,15,16,16],"right_children":[2,4,-1,6,8,10,12,14,16,18,-1,20,22,24,26,28,30,-1,-1,-1,-1,-1,-1,-1,-1,-1,-1,-1,-1,-1,-1],"split_conditions":[1.7408416E0,-6.017682E-1,-2.113909E-1,5.933706E-1,4.1091368E-1,-1.3266369E-2,3.71548E-2,-4.2516342E-1,3.5260115E-3,-6.6751546E-1,2.6305586E-1,-7.018484E-1,1.0675254E0,-8.614757E-2,1.9760987E-1,-3.9330356E-2,-4.8850572E-1,1.7393753E-1,-6.9730086E-3,-1.9112159E-2,-2.5700977E-1,7.9446815E-2,-1.1382139E-2,-3.0614052E-3,2.0011635E-1,3.0617196E-2,-1.1930948E-1,-3.490461E-1,-1.8812369E-1,-1.1370375E-2,-1.4481167E-1],"split_indices":[0,2,0,0,0,1,1,2,1,2,0,2,0,1,0,1,2,0,0,0,0,0,0,0,0,0,0,0,0,0,0],"split_type":[0,0,0,0,0,0,0,0,0,0,0,0,0,0,0,0,0,0,0,0,0,0,0,0,0,0,0,0,0,0,0],"sum_hessian":[8.568023E2,8.503109E2,6.491357E0,6.062603E2,2.4405063E2,4.442217E1,5.6183813E2,1.36355E2,1.0769563E2,3.0228003E1,1.4194165E1,2.8216376E2,2.7967438E2,2.6977448E1,1.0937754E2,1.3655201E1,9.404043E1,1.6860342E1,1.3367661E1,2.6116406E2,2.09997E1,1.5477388E2,1.2490048E2,8.886159E0,1.809129E1,7.791087E1,3.1466667E1,7.293641E0,6.3615603E0,5.819639E1,3.584404E1],"tree_param":{"num_deleted":"0","num_feature":"3","num_nodes":"31","size_leaf_vector":"1"}},{"base_weights":[-1.2052098E-2,5.9901804E-1,-2.685664E-2,2.7359995E-1,1.695851E-2,3.0354764E-2,-1.5965897E-1,1.5446316E-1,-6.5010995E-2,3.393489E-2,-4.7946703E-1,2.8809901E-2,6.309443E-1,4.538792E-3,-6.197975E-1,-4.8969182E-1,1.7420235E-1,-1.1383948E0,-1.5371583E-1,1.5156429E-1,-1.5554985E-2,2.3381698E-1,6.724104E-2,6.47965E-2,-1.7454209E-2,-2.394274E-1,1.2126928E-1,-3.934085E-2,-2.4864751E-1,1.7942123E-1,-1.32530555E-2,-1.12220965E-1,-5.027398E-1,1.3349806E-1,-7.820462E-2],"categories":[],"categories_nodes":[],"categories_segments":[],"categories_sizes":[],"default_left":[0,0,0,0,0,0,0,0,0,0,0,0,0,0,0,0,0,0,0,0,0,0,0,0,0,0,0,0,0,0,0,0,0,0,0],"id":36,"left_children":[1,3,5,-1,-1,7,9,11,13,15,17,19,21,23,25,27,29,31,33,-1,-1,-1,-1,-1,-1,-1,-1,-1,-1,-1,-1,-1,-1,-1,-1],"loss_changes":[7.6111455E0,6.973396E0,6.239952E0,0E0,0E0,6.808425E0,1.5324144E1,1.4942651E1,1.2562869E1,1.1466032E1,1.985126E1,1.3852896E1,7.311863E0,7.534472E0,2.2337498E1,6.598875E0,1.9449066E1,2.1684223E1,1.0800068E1,0E0,0E0,0E0,0E0,0E0,0E0,0E0,0E0,0E0,0E0,0E0,0E0,0E0,0E0,0E0,0E0],"parents":[2147483647,0,0,1,1,2,2,5,5,6,6,7,7,8,8,9,9,10,10,11,11,12,12,13,13,14,14,15,15,16,16,17,17,18,18],"right_children":[2,4,6,-1,-1,8,10,12,14,16,18,20,22,24,26,28,30,32,34,-1,-1,-1,-1,-1,-1,-1,-1,-1,-1,-1,-1,-1,-1,-1,-1],"split_conditions":[-1.0403254E0,1.2199631E0,8.8428074E-1,2.7359995E-1,1.695851E-2,-6.921286E-1,-8.7214136E-1,3.71548E-2,6.939278E-1,-8.1043296E-2,2.294634E-1,6.3488644E-1,-7.520062E-1,-6.0899985E-1,3.1452498E-1,-9.4311434E-1,1.0675254E0,9.674429E-1,4.815225E-1,1.5156429E-1,-1.5554985E-2,2.3381698E-1,6.724104E-2,6.47965E-2,-1.7454209E-2,-2.394274E-1,1.2126928E-1,-3.934085E-2,-2.4864751E-1,1.7942123E-1,-1.32530555E-2,-1.12220965E-1,-5.027398E-1,1.3349806E-1,-7.820462E-2],"split_indices":[2,0,0,0,0,2,2,1,0,1,1,0,2,2,1,2,0,0,1,0,0,0,0,0,0,0,0,0,0,0,0,0,0,0,0],"split_type":[0,0,0,0,0,0,0,0,0,0,0,0,0,0,0,0,0,0,0,0,0,0,0,0,0,0,0,0,0,0,0,0,0,0,0],"sum_hessian":[8.385471E2,1.8901695E1,8.196454E2,7.5215178E0,1.1380177E1,5.733968E2,2.462486E2,2.4888272E2,3.245141E2,1.5394987E2,9.229873E1,1.977851E2,5.109762E1,2.892452E2,3.526887E1,3.200018E1,1.2194969E2,2.970895E1,6.258978E1,2.49009E1,1.728842E2,1.9633715E1,3.1463902E1,6.4218796E1,2.2502643E2,2.481601E1,1.0452862E1,2.2931713E1,9.068468E0,3.122359E1,9.07261E1,2.0737143E1,8.9718075E0,1.3016936E1,4.957284E1],"tree_param":{"num_deleted":"0","num_feature":"3","num_nodes":"35","size_leaf_vector":"1"}},{"base_weights":[1.7112419E-2,-4.494307E-2,1.1391895E-1,7.3061265E-2,-1.6756964E-1,1.3856786E-1,-1.7907731E-1,2.4785437E-1,-9.85231E-2,9.068534E-2,-4.7262898E-1,2.6041722E-1,1.1166418E-1,-1.3924798E-1,6.529373E-1,2.3254515E-3,-2.2706254E-1,6.5044045E-1,-1.4644212E-1,-2.4880646E-1,-1.0273368E0,1.487054E-1,-6.012706E-1,-6.1860364E-2,1.2143061E-1,4.7071632E-2,1.7247875E-1,1.9984407E-2,-1.24808095E-1,6.496969E-2,2.542694E-1,1.9178573E-2,-1.8321213E-1,-1.909558E-2,-3.059321E-1,-1.3834108E-1,-3.390712E-1,2.4147357E-1,2.3927784E-2,-5.0310098E-2,-1.971583E-1],"categories":[],"categories_nodes":[],"categories_segments":[],"categories_sizes":[],"default_left":[0,0,0,0,0,0,0,0,0,0,0,0,0,0,0,0,0,0,0,0,0,0,0,0,0,0,0,0,0,0,0,0,0,0,0,0,0,0,0,0,0],"id":37,"left_children":[1,3,5,7,9,11,-1,13,15,17,19,-1,21,23,25,27,-1,29,31,33,35,37,39,-1,-1,-1,-1,-1,-1,-1,-1,-1,-1,-1,-1,-1,-1,-1,-1,-1,-1],"loss_changes":[4.956453E0,7.290444E0,7.693423E0,7.7326555E0,1.949894E1,9.041173E0,0E0,2.0099674E1,1.2714941E1,1.7958147E1,1.3821241E1,0E0,8.234869E0,7.2342033E0,4.0401E0,6.453982E0,0E0,7.1779823E0,1.6148321E1,1.5380247E1,5.8463745E0,1.0422355E1,1.6057138E0,0E0,0E0,0E0,0E0,0E0,0E0,0E0,0E0,0E0,0E0,0E0,0E0,0E0,0E0,0E0,0E0,0E0,0E0],"parents":[2147483647,0,0,1,1,2,2,3,3,4,4,5,5,7,7,8,8,9,9,10,10,12,12,13,13,14,14,15,15,17,17,18,18,19,19,20,20,21,21,22,22],"right_children":[2,4,6,8,10,12,-1,14,16,18,20,-1,22,24,26,28,-1,30,32,34,36,38,40,-1,-1,-1,-1,-1,-1,-1,-1,-1,-1,-1,-1,-1,-1,-1,-1,-1,-1],"split_conditions":[1.1502296E-1,-7.623288E-1,-1.3539204E-2,8.294659E-1,5.5357206E-1,4.757194E-2,-1.7907731E-1,-1.5934984E-1,-8.2651526E-1,-5.333015E-1,-6.6751546E-1,2.6041722E-1,-2.7296177E-1,7.6991034E-1,7.1206987E-1,1.1417043E0,-2.2706254E-1,-2.5605084E-2,2.993117E-1,7.7341115E-1,6.170864E-1,2.993117E-1,2.2670607E-1,-6.1860364E-2,1.2143061E-1,4.7071632E-2,1.7247875E-1,1.9984407E-2,-1.24808095E-1,6.496969E-2,2.542694E-1,1.9178573E-2,-1.8321213E-1,-1.909558E-2,-3.059321E-1,-1.3834108E-1,-3.390712E-1,2.4147357E-1,2.3927784E-2,-5.0310098E-2,-1.971583E-1],"split_indices":[1,2,2,0,0,0,0,1,2,2,2,0,2,0,0,0,0,1,0,0,0,0,0,0,0,0,0,0,0,0,0,0,0,0,0,0,0,0,0,0,0],"split_type":[0,0,0,0,0,0,0,0,0,0,0,0,0,0,0,0,0,0,0,0,0,0,0,0,0,0,0,0,0,0,0,0,0,0,0,0,0,0,0,0,0],"sum_hessian":[8.2320886E2,5.0196933E2,3.2123956E2,2.5601178E2,2.4595757E2,3.1398132E2,7.2582197E0,1.26599884E2,1.2941188E2,1.3357733E2,1.12380226E2,6.534376E0,3.0744696E2,6.5072266E1,6.1527622E1,1.18088776E2,1.1323108E1,3.9229794E1,9.434754E1,8.1103714E1,3.127651E1,2.9301453E2,1.4432434E1,5.41363E1,1.0935965E1,1.6971003E1,4.455662E1,1.0292174E2,1.5167036E1,2.4912031E1,1.4317763E1,7.151029E1,2.2837248E1,7.245383E1,8.649891E0,1.9994648E1,1.1281861E1,9.395857E0,2.8361865E2,7.5916357E0,6.840798E0],"tree_param":{"num_deleted":"0","num_feature":"3","num_nodes":"41","size_leaf_vector":"1"}},{"base_weights":[-2.1675096E-3,7.1675223E-1,-1.7794702E-2,1.6240716E-2,2.3099245E-1,-6.5109753E-3,-1.6519246E-1,-5.858721E-2,1.325004E-1,4.253203E-1,-8.3308265E-2,2.6423022E-1,-1.2032133E-1,2.1546964E-1,3.3675857E-2,-1.2347241E-2,-2.3426011E-1,1.8014134E-1,2.8187186E-2,-1.2036161E-1,6.266705E-2],"categories":[],"categories_nodes":[],"categories_segments":[],"categories_sizes":[],"default_left":[0,0,0,0,0,0,0,0,0,0,0,0,0,0,0,0,0,0,0,0,0],"id":38,"left_children":[1,3,5,-1,-1,7,-1,9,11,13,15,17,19,-1,-1,-1,-1,-1,-1,-1,-1],"loss_changes":[9.054019E0,3.9458761E0,6.7320156E0,0E0,0E0,5.640178E0,0E0,6.814715E0,7.1037235E0,4.1768637E0,1.3859883E1,1.0615525E1,1.3680518E1,0E0,0E0,0E0,0E0,0E0,0E0,0E0,0E0],"parents":[2147483647,0,0,1,1,2,2,5,5,7,7,8,8,9,9,10,10,11,11,12,12],"right_children":[2,4,6,-1,-1,8,-1,10,12,14,16,18,20,-1,-1,-1,-1,-1,-1,-1,-1],"split_conditions":[-1.0403254E0,-1.0719545E0,1.6791672E0,1.6240716E-2,2.3099245E-1,1.8184352E-1,-1.6519246E-1,-1.1579684E-1,1.2059796E0,-6.809878E-2,-2.0311418E-1,-7.1952343E-1,5.9198046E-1,2.1546964E-1,3.3675857E-2,-1.2347241E-2,-2.3426011E-1,1.8014134E-1,2.8187186E-2,-1.2036161E-1,6.266705E-2],"split_indices":[2,2,0,0,0,1,0,0,0,2,2,2,1,0,0,0,0,0,0,0,0],"split_type":[0,0,0,0,0,0,0,0,0,0,0,0,0,0,0,0,0,0,0,0,0],"sum_hessian":[8.0376276E2,1.6145231E1,7.8761755E2,6.3184543E0,9.8267765E0,7.770451E2,1.05724325E1,5.657014E2,2.1134369E2,2.6707384E1,5.38994E2,1.389173E2,7.2426384E1,7.501351E0,1.9206032E1,5.26879E2,1.2114994E1,2.4727064E1,1.1419024E2,3.477302E1,3.7653362E1],"tree_param":{"num_deleted":"0","num_feature":"3","num_nodes":"21","size_leaf_vector":"1"}},{"base_weights":[5.291376E-3,1.4854017E-1,-6.579014E-2,-1.846359E-1,2.2451651E-1,2.9758018E-2,-4.5477706E-1,4.766392E-3,-3.5891986E-1,4.4280395E-1,3.657518E-2,-5.320246E-3,6.898702E-1,-3.0818415E-1,-3.231099E-1,3.3325168E-1,-8.332217E-2,1.21583134E-1,-1.8361668E-1,2.0337237E-1,7.0161134E-1,-3.8438478E-1,2.672567E-1,1.9400738E-1,-8.41017E-2,1.3365178E0,-1.3626432E-1,-7.868528E-2,-6.7439014E-1,-5.7655424E-2,2.0649785E-1,8.9587346E-2,-3.0943204E-2,1.1643292E-1,-2.4083182E-2,2.1914294E-1,9.762374E-2,-1.3023606E-2,-4.2557004E-1,9.453063E-2,-5.2487433E-2,-5.5670515E-2,1.0753726E-1,1.6565492E-2,-6.749754E-2,3.5022518E-1,1.643097E-1,1.003332E-1,-1.0558596E-1,-3.4215778E-1,-7.2703935E-2],"categories":[],"categories_nodes":[],"categories_segments":[],"categories_sizes":[],"default_left":[0,0,0,0,0,0,0,0,0,0,0,0,0,0,0,0,0,0,0,0,0,0,0,0,0,0,0,0,0,0,0,0,0,0,0,0,0,0,0,0,0,0,0,0,0,0,0,0,0,0,0],"id":39,"left_children":[1,3,5,7,9,11,13,15,17,19,21,23,25,-1,27,29,-1,31,-1,33,35,37,39,41,43,45,-1,47,49,-1,-1,-1,-1,-1,-1,-1,-1,-1,-1,-1,-1,-1,-1,-1,-1,-1,-1,-1,-1,-1,-1],"loss_changes":[8.267299E0,6.85735E0,2.0184278E1,1.6702905E0,8.99751E0,1.011399E1,1.3503124E1,3.406442E0,6.462743E0,6.1505947E0,1.1673316E1,6.5424013E0,1.9795513E1,0E0,8.173197E0,5.752533E0,0E0,1.203227E0,0E0,5.9351406E0,3.377945E0,2.2072369E1,7.125305E0,1.680825E1,1.1257364E1,1.3593388E0,0E0,1.34217205E1,1.1606773E1,0E0,0E0,0E0,0E0,0E0,0E0,0E0,0E0,0E0,0E0,0E0,0E0,0E0,0E0,0E0,0E0,0E0,0E0,0E0,0E0,0E0,0E0],"parents":[2147483647,0,0,1,1,2,2,3,3,4,4,5,5,6,6,7,7,8,8,9,9,10,10,11,11,12,12,14,14,15,15,17,17,19,19,20,20,21,21,22,22,23,23,24,24,25,25,27,27,28,28],"right_children":[2,4,6,8,10,12,14,16,18,20,22,24,26,-1,28,30,-1,32,-1,34,36,38,40,42,44,46,-1,48,50,-1,-1,-1,-1,-1,-1,-1,-1,-1,-1,-1,-1,-1,-1,-1,-1,-1,-1,-1,-1,-1,-1],"split_conditions":[-8.3772564E-1,-2.1539846E-1,8.01275E-1,-9.470685E-1,1.0482688E0,4.0894595E-1,3.359351E-2,8.7792134E-1,7.402185E-1,-8.1043296E-2,1.3483705E-1,-7.018484E-1,-3.0449656E-1,-3.0818415E-1,-7.322253E-1,-3.528306E-1,-8.332217E-2,-2.7916586E-1,-1.8361668E-1,8.571215E-1,-8.8593936E-1,-9.352516E-1,1.5874841E0,-1.02426074E-1,5.202564E-1,6.6351825E-1,-1.3626432E-1,9.32209E-1,2.6930872E-1,-5.7655424E-2,2.0649785E-1,8.9587346E-2,-3.0943204E-2,1.1643292E-1,-2.4083182E-2,2.1914294E-1,9.762374E-2,-1.3023606E-2,-4.2557004E-1,9.453063E-2,-5.2487433E-2,-5.5670515E-2,1.0753726E-1,1.6565492E-2,-6.749754E-2,3.5022518E-1,1.643097E-1,1.003332E-1,-1.0558596E-1,-3.4215778E-1,-7.2703935E-2],"split_indices":[2,1,0,2,0,1,1,0,0,1,1,2,2,0,2,1,0,1,0,0,2,2,0,1,0,0,0,0,1,0,0,0,0,0,0,0,0,0,0,0,0,0,0,0,0,0,0,0,0,0,0],"split_type":[0,0,0,0,0,0,0,0,0,0,0,0,0,0,0,0,0,0,0,0,0,0,0,0,0,0,0,0,0,0,0,0,0,0,0,0,0,0,0,0,0,0,0,0,0,0,0,0,0,0,0],"sum_hessian":[8.099654E2,2.6825934E2,5.4170605E2,4.9548046E1,2.1871129E2,4.3562543E2,1.0608063E2,2.4210283E1,2.5337765E1,1.0055917E2,1.1815212E2,4.145863E2,2.1039116E1,1.1272148E1,9.480848E1,1.3313548E1,1.0896735E1,1.3338518E1,1.1999246E1,5.3162518E1,4.7396656E1,4.1590057E1,7.6562065E1,1.1702777E2,2.9755856E2,1.4149272E1,6.8898425E0,5.662924E1,3.817924E1,7.1215596E0,6.191988E0,6.0211797E0,7.317339E0,2.5165796E1,2.7996721E1,1.8885118E1,2.8511536E1,3.5506527E1,6.083533E0,5.710547E1,1.9456594E1,4.751753E1,6.951024E1,1.7585103E2,1.2170751E2,7.9441657E0,6.2051067E0,2.4367908E1,3.2261333E1,9.062983E0,2.9116257E1],"tree_param":{"num_deleted":"0","num_feature":"3","num_nodes":"51","size_leaf_vector":"1"}},{"base_weights":[1.4313995E-2,2.5279212E-3,1.6748518E-1,5.6451757E-2,-1.2216071E-1,5.430279E-1,2.1482086E-2,1.01864435E-1,-3.625667E-1,7.764029E-2,2.3086971E-1,7.454247E-2,-2.1112601E-1,7.5592035E-1,-4.4539254E-2,-6.279345E-1,2.4685184E-2,2.0174453E-1,-8.04209E-2,6.111383E-3,1.6742647E-1,-1.9641535E-2,-2.1351394E-1,2.3450492E-1,9.4544955E-2,2.2562409E-2,-9.606243E-2,-7.913621E-2,-2.033817E-1,7.213758E-2,-1.5182616E-1],"categories":[],"categories_nodes":[],"categories_segments":[],"categories_sizes":[],"default_left":[0,0,0,0,0,0,0,0,0,0,0,0,0,0,0,0,0,0,0,0,0,0,0,0,0,0,0,0,0,0,0],"id":40,"left_children":[1,3,-1,5,7,9,11,13,15,17,-1,19,21,23,25,27,29,-1,-1,-1,-1,-1,-1,-1,-1,-1,-1,-1,-1,-1,-1],"loss_changes":[7.1762133E0,5.242736E0,0E0,9.249853E0,1.271559E1,9.07629E0,6.296076E0,1.1777111E1,1.1707438E1,8.519505E0,0E0,1.3512686E1,8.821705E0,1.929574E0,6.2244635E0,5.300766E0,1.1157498E1,0E0,0E0,0E0,0E0,0E0,0E0,0E0,0E0,0E0,0E0,0E0,0E0,0E0,0E0],"parents":[2147483647,0,0,1,1,3,3,4,4,5,5,6,6,7,7,8,8,9,9,11,11,12,12,13,13,14,14,15,15,16,16],"right_children":[2,4,-1,6,8,10,12,14,16,18,-1,20,22,24,26,28,30,-1,-1,-1,-1,-1,-1,-1,-1,-1,-1,-1,-1,-1,-1],"split_conditions":[8.0143917E-1,-6.0899985E-1,1.6748518E-1,5.857311E-1,3.7628224E-1,-8.614757E-2,1.1807607E0,-4.2516342E-1,2.4240488E-1,-7.018484E-1,2.3086971E-1,2.6930872E-1,-7.899518E-1,2.993117E-1,1.9760987E-1,-5.2099305E-1,-4.124239E-1,2.0174453E-1,-8.04209E-2,6.111383E-3,1.6742647E-1,-1.9641535E-2,-2.1351394E-1,2.3450492E-1,9.4544955E-2,2.2562409E-2,-9.606243E-2,-7.913621E-2,-2.033817E-1,7.213758E-2,-1.5182616E-1],"split_indices":[1,2,0,0,0,1,0,2,1,2,0,1,2,0,0,2,2,0,0,0,0,0,0,0,0,0,0,0,0,0,0],"split_type":[0,0,0,0,0,0,0,0,0,0,0,0,0,0,0,0,0,0,0,0,0,0,0,0,0,0,0,0,0,0,0],"sum_hessian":[7.885957E2,7.7771533E2,1.0880328E1,5.4330194E2,2.344134E2,3.545428E1,5.0784766E2,1.21638985E2,1.1277443E2,1.9656136E1,1.5798146E1,4.1407278E2,9.377487E1,2.1486256E1,1.00152725E2,6.654936E1,4.6225063E1,6.3839483E0,1.3272186E1,3.89947E2,2.4125786E1,8.247568E1,1.1299194E1,9.025088E0,1.2461167E1,7.362687E1,2.652586E1,3.8432114E1,2.811725E1,3.280165E1,1.3423411E1],"tree_param":{"num_deleted":"0","num_feature":"3","num_nodes":"31","size_leaf_vector":"1"}},{"base_weights":[-7.21903E-3,-1.3093148E-1,5.506408E-2,1.288233E-1,-1.9763073E-1,1.4842491E-1,-1.10342264E-1,2.0209329E-1,-3.1385574E-2,-1.0289909E-1,-2.6084816E-1,2.9035777E-1,-1.7318578E-1,7.7756345E-2,-4.5725703E-1,1.1743734E-1,-1.6499104E-1,1.7430346E-1,-1.519726E-1,2.222002E-1,2.3540549E-1,7.160467E-2,-6.061459E-1,-1.9796239E-1,2.6728547E-1,-3.6614E-1,-1.9678745E-1,1.7462988E-1,-1.8548202E-2,-6.245331E-3,-1.6374677E-1,2.3066683E-1,3.2228354E-2,1.2117876E-1,-5.7059575E-2,-1.8386696E-1,4.2377E-3,1.2156429E-1,-9.075733E-2,1.8642694E-1,6.956386E-3,-1.4095674E-3,-2.1617803E-1],"categories":[],"categories_nodes":[],"categories_segments":[],"categories_sizes":[],"default_left":[0,0,0,0,0,0,0,0,0,0,0,0,0,0,0,0,0,0,0,0,0,0,0,0,0,0,0,0,0,0,0,0,0,0,0,0,0,0,0,0,0,0,0],"id":41,"left_children":[1,3,5,7,9,11,13,-1,15,17,-1,19,21,23,25,27,-1,-1,29,31,-1,33,35,37,39,-1,41,-1,-1,-1,-1,-1,-1,-1,-1,-1,-1,-1,-1,-1,-1,-1,-1],"loss_changes":[6.0628395E0,4.5901995E0,8.09966E0,7.17381E0,2.0287624E1,1.5342852E1,1.2396503E1,0E0,5.229531E0,8.859561E0,0E0,1.2669365E1,1.0981599E1,6.516226E0,2.1571087E1,5.75301E0,0E0,0E0,1.39176445E1,1.3031243E1,0E0,1.1415617E1,6.016062E0,9.15922E0,1.047604E1,0E0,8.765657E0,0E0,0E0,0E0,0E0,0E0,0E0,0E0,0E0,0E0,0E0,0E0,0E0,0E0,0E0,0E0,0E0],"parents":[2147483647,0,0,1,1,2,2,3,3,4,4,5,5,6,6,8,8,9,9,11,11,12,12,13,13,14,14,15,15,18,18,19,19,21,21,22,22,23,23,24,24,26,26],"right_children":[2,4,6,8,10,12,14,-1,16,18,-1,20,22,24,26,28,-1,-1,30,32,-1,34,36,38,40,-1,42,-1,-1,-1,-1,-1,-1,-1,-1,-1,-1,-1,-1,-1,-1,-1,-1],"split_conditions":[-3.2574516E-2,4.964158E-1,9.32209E-1,-6.017682E-1,-6.967081E-1,-4.6133256E-1,-8.6407673E-1,2.0209329E-1,3.217011E-1,6.006251E-1,-2.6084816E-1,3.070384E-1,3.402129E-1,1.3483705E-1,1.6499835E-1,-4.0088114E-1,-1.6499104E-1,1.7430346E-1,-7.833044E-1,4.5503592E-1,2.3540549E-1,-2.5893688E-1,3.9536452E-1,1.0482688E0,1.3320795E0,-3.6614E-1,-6.383282E-1,1.7462988E-1,-1.8548202E-2,-6.245331E-3,-1.6374677E-1,2.3066683E-1,3.2228354E-2,1.2117876E-1,-5.7059575E-2,-1.8386696E-1,4.2377E-3,1.2156429E-1,-9.075733E-2,1.8642694E-1,6.956386E-3,-1.4095674E-3,-2.1617803E-1],"split_indices":[1,0,0,2,2,2,2,0,0,0,0,1,0,1,1,2,0,0,2,0,0,2,1,0,0,0,2,0,0,0,0,0,0,0,0,0,0,0,0,0,0,0,0],"split_type":[0,0,0,0,0,0,0,0,0,0,0,0,0,0,0,0,0,0,0,0,0,0,0,0,0,0,0,0,0,0,0,0,0,0,0,0,0,0,0,0,0,0,0],"sum_hessian":[7.8491504E2,2.6247025E2,5.2244476E2,5.3436146E1,2.0903409E2,3.3401712E2,1.8842767E2,7.936878E0,4.5499268E1,1.9237192E2,1.666218E1,2.3181151E2,1.022056E2,1.2268385E2,6.574383E1,3.8604137E1,6.89513E0,8.943674E0,1.8342824E2,2.1507365E2,1.6737848E1,6.582407E1,3.6381523E1,4.9959885E1,7.272397E1,1.0302528E1,5.5441296E1,8.03126E0,3.057288E1,1.5384442E2,2.9583815E1,1.5323715E1,1.9974994E2,2.6435555E1,3.938852E1,2.5544014E1,1.0837511E1,1.1081375E1,3.887851E1,1.951035E1,5.321362E1,4.5793434E1,9.647862E0],"tree_param":{"num_deleted":"0","num_feature":"3","num_nodes":"43","size_leaf_vector":"1"}},{"base_weights":[1.9227898E-2,1.9412696E-1,-1.9865563E-2,1.4037973E-1,1.839528E-1,5.9254006E-2,-2.4659555E-1,1.9433852E-1,-1.1252224E-1,-2.3122022E-2,2.399642E-1,-8.7761116E-1,-1.5061851E-1,1.2978077E-1,2.2173697E-1,2.3883626E-1,-1.4754514E-1,2.4101661E-1,9.391924E-2,-6.0912408E-2,-2.8321552E-1,5.197998E-2,-4.58013E-1,4.4577826E-2,-1.8776932E-1,-5.1385332E-2,9.850275E-2,-1.7178226E-2,-2.5761825E-1,4.775698E-2,-8.28329E-2,1.6108666E-1,-5.2173655E-2,-2.4288243E-1,-2.3931118E-2],"categories":[],"categories_nodes":[],"categories_segments":[],"categories_sizes":[],"default_left":[0,0,0,0,0,0,0,0,0,0,0,0,0,0,0,0,0,0,0,0,0,0,0,0,0,0,0,0,0,0,0,0,0,0,0],"id":42,"left_children":[1,3,5,7,-1,9,11,13,-1,15,17,19,21,23,-1,25,27,-1,29,-1,-1,31,33,-1,-1,-1,-1,-1,-1,-1,-1,-1,-1,-1,-1],"loss_changes":[5.2883983E0,4.9573903E0,1.1362647E1,4.8609037E0,0E0,6.9984674E0,9.790408E0,6.5725317E0,0E0,1.058199E1,1.90368E1,5.3377876E0,8.955446E0,9.425188E0,0E0,1.1314278E1,1.5532122E1,0E0,8.092324E0,0E0,0E0,1.8420607E1,1.3317126E1,0E0,0E0,0E0,0E0,0E0,0E0,0E0,0E0,0E0,0E0,0E0,0E0],"parents":[2147483647,0,0,1,1,2,2,3,3,5,5,6,6,7,7,9,9,10,10,11,11,12,12,13,13,15,15,16,16,18,18,21,21,22,22],"right_children":[2,4,6,8,-1,10,12,14,-1,16,18,20,22,24,-1,26,28,-1,30,-1,-1,32,34,-1,-1,-1,-1,-1,-1,-1,-1,-1,-1,-1,-1],"split_conditions":[-9.2847484E-1,6.890944E-1,8.340012E-1,6.284866E-1,1.839528E-1,1.0367999E-1,-2.8671918E-2,4.7377747E-1,-1.1252224E-1,-7.623288E-1,-6.6751546E-1,-8.883974E-1,-8.0580556E-1,1.3719373E0,2.2173697E-1,-1.9318375E-1,7.402185E-1,2.4101661E-1,6.5682024E-1,-6.0912408E-2,-2.8321552E-1,9.674429E-1,2.294634E-1,4.4577826E-2,-1.8776932E-1,-5.1385332E-2,9.850275E-2,-1.7178226E-2,-2.5761825E-1,4.775698E-2,-8.28329E-2,1.6108666E-1,-5.2173655E-2,-2.4288243E-1,-2.3931118E-2],"split_indices":[2,1,0,1,0,1,1,1,0,2,2,2,2,0,0,1,0,0,0,0,0,0,1,0,0,0,0,0,0,0,0,0,0,0,0],"split_type":[0,0,0,0,0,0,0,0,0,0,0,0,0,0,0,0,0,0,0,0,0,0,0,0,0,0,0,0,0,0,0,0,0,0,0],"sum_hessian":[7.718865E2,1.4028847E2,6.31598E2,1.3097241E2,9.316047E0,4.6875888E2,1.6283917E2,1.21842545E2,9.129869E0,3.2258282E2,1.4617606E2,2.0422749E1,1.4241643E2,1.1427371E2,7.5688353E0,1.0358249E2,2.1900032E2,1.9643774E1,1.2653228E2,9.53733E0,1.0885419E1,8.634126E1,5.6075157E1,1.0669185E2,7.5818563E0,3.2860607E1,7.0721886E1,2.0700969E2,1.1990638E1,1.0008081E2,2.6451466E1,2.5150806E1,6.1190456E1,1.8104729E1,3.797043E1],"tree_param":{"num_deleted":"0","num_feature":"3","num_nodes":"35","size_leaf_vector":"1"}},{"base_weights":[-2.6118932E-2,-3.846122E-2,1.08691104E-1,7.993204E-2,-1.0083311E-1,4.388542E-1,-2.9518208E-2,-5.3065337E-2,-5.9254515E-1,4.387587E-2,7.761712E-1,4.114972E-2,-4.907288E-1,-2.0103283E-1,1.1569745E-1,-9.297795E-1,-2.3569188E-1,2.4581912E-1,-7.457498E-2,2.4968885E-1,9.464698E-2,7.705875E-2,-1.0414599E-2,-2.297295E-1,4.8312496E-2,-1.694741E-2,-1.4038344E-1,1.2883711E-1,-1.199155E-2,